0.212317402783273
-0.42211177564437
-0.729881958935204
1.77642029488221
-2.06216676765067
0.842208827065678
1.74285152684202
-0.812293057451275
0.36244487146908
-1.7690762422322
-1.93811000175905
-0.0324064636772
-1.31748279748242
-1.87567215717992
-1.08967491054038
1.73809552315622
0.0158037793678228
-0.887572501086861
0.402151801597166
0.46591670287272
-0.726623097000811
0.132348887486067
0.0277977795804376
-1.37387212895487
0.0271870123528542
-0.186801005064724
0.643088987049275
-0.0898108562297299
0.43371554482661
-0.662590800901882
-0.811604694352209
-0.786615351657654
-0.966558857052834
-1.56903540731306
1.60447060120019
0.710930746761308
0.188705120730326
-0.106166340120995
-0.0302131180401435
-0.623984079794593
-1.24930639919021
-0.280255118888467
-1.57269423361738
0.55438316699962
0.377624139489398
-0.473881945656143
-0.142054193054286
-0.696521774129081
0.607617867605904
1.3383109705123
-0.971824160058069
-0.250158216677757
-0.925417294572786
-0.345399161081077
1.51783570526915
0.948295357983641
-1.2292498912223
1.39210974210227
1.05365582938276
-0.817852779675413
-0.886985850998448
-0.490905591427187
-0.857210994702602
-0.683163705768585
0.64199904165908
-2.05860266135306
1.43920086922394
1.07726040575835
0.297042393062878
-0.331735906081706
1.54944861529495
-0.0287520615103818
-1.32057493457394
0.664782242211889
-1.03636495103723
-1.24677849327699
0.177257478022032
-1.62080457649447
-0.402754832441337
-1.07405147951895
-0.211256705512704
0.429994222654304
0.0963828061659709
-0.630547697146112
0.101154528716944
-0.599294060752457
-0.887109230283432
-1.15902153803939
-1.14922721264736
1.22402254898849
-2.38866665617551
-0.554805786615704
0.0016557397908082
0.101974550351575
0.915566016856553
-0.053310703157198
-2.64362606981288
-0.400024996278328
0.657809146648211
-0.770283210141656
-0.958311535574368
0.457653909900153
-0.124166321596067
-1.54725469960738
-0.481213036913354
-0.191179724976142
0.0457540255477851
0.804882259249634
0.868662329819035
-0.00853875729280137
-0.569393708409821
0.957047009579889
1.94898033424782
0.681022671658233
-0.87452753909648
-0.0297762494148424
0.508515638779641
-0.929761309394232
-0.662135872682338
-0.204018700439788
0.775022696310244
-0.220844258028963
-0.571787533726186
-0.0343398349262983
1.19742391335523
0.0954140061791579
-1.68933858088933
0.225524905432826
0.0570498508894325
-2.20964711079908
0.973413283855529
0.999443967228972
-0.610856023163343
-0.188061698384346
-1.90375427685863
-0.173212524692951
-0.0817956357403318
0.0117868999036453
0.472032178629271
-0.0076735206602125
0.735387435431177
-0.200156232687297
-0.371453917100556
0.750235536798925
0.469122419966994
1.7520249769587
-0.330564498573696
1.22708155686762
0.0696262767341428
1.11392189556127
-1.49187489343296
0.000796017757831322
-1.05317583701458
-0.137782287831825
0.71974033559673
-0.0575664855168861
-0.769550977292928
-1.093349691613
-0.13724691937314
0.399494974830836
-1.7478988265701
0.350162024849975
-0.551525705975947
0.164576637845039
-0.229728885763922
-0.0682019230493314
0.53271277962732
-0.0216622256320179
0.733065834511703
-0.688908447881846
-0.515913658132047
0.70130119522627
-0.809037171522084
-0.198450688548255
-0.944578975862656
-0.409777055751495
0.539011279532446
-0.0843154315466908
0.813489681165203
-1.26778877519527
-1.55080896211182
-0.404067699924431
0.404054468677978
0.505540667661324
-1.12115522512835
-0.443404564446057
0.787348803794911
-0.433439634645276
-1.54539627036284
-0.875968981057372
-0.00299782703134294
0.230114133358676
0.481719244717468
2.25442863659531
-1.52875085161048
-0.879090593794764
0.868453589125088
1.03171402370231
-1.16469183933664
-0.898425475832305
-0.971630548918533
1.88738480255251
-0.700974793721709
1.30958607611929
-1.41151277248806
1.03603955153267
0.767591709453347
0.304618771458282
0.212661075533295
-1.58425473895231
0.134200017877926
-0.244081256094096
0.997243559824072
0.558286827750502
-0.701306592342483
1.06631275555754
1.72478830520582
-1.34442021609731
-0.914625879937902
1.76227988323294
0.158138381846608
-0.644376085995883
0.252449811503566
-2.39317396416261
0.638935060401936
0.0386182612327486
0.180379315183394
0.0441177910277429
1.2807665822934
0.807615828558835
-0.577524726030725
2.32596125244033
-0.826276652046153
-0.0029370652979179
-0.132167321969678
1.76658297556055
0.355224359146807
2.19511363204822
-1.31696037495132
1.59852221656345
-1.32847091119093
0.0983515058940668
0.623236761499437
-0.419517671789367
-1.35066610603601
-1.77907019132028
1.22492320717431
-0.00693125193109334
0.39396503768497
-0.851816419832166
-3.25803524868146
-0.659502292842404
0.612944268518201
-1.18022991461968
0.684011330896396
0.757358852087724
-1.25157945957568
1.57274230753264
0.229063066788409
-2.00763586032571
-1.69454082683618
0.624883580492188
-0.537403195639211
-0.703795637293904
-0.851875000810356
-0.123167175796692
-1.88524169904077
0.335291324431477
-1.71464185076641
0.425610579754918
0.292793845699072
0.706520517316921
-0.606451134321172
-2.70575929650201
-0.839326681054721
0.556225405075645
-2.27104535597186
-0.358467500091785
-1.66280407074248
-0.49072411680112
-0.292441947230004
-1.22772024285951
0.0651592889606332
1.66166479521708
0.629616739901984
-2.12969871713372
0.883896109805202
0.0458197503592623
-0.656661857052339
0.659864522035112
0.0887935584263734
0.351877189421158
1.90394210539591
-0.55626151797478
0.215872289309019
-0.269967942206037
-2.20079376306701
-0.714434579200662
1.72285855728144
-1.80691662233884
0.513628336932806
0.403486300017572
-0.0572667584423039
1.44501987687881
0.83616089709402
0.646944635796138
0.818529863168878
-0.188440564863941
0.912806386370166
-0.571401433900788
-1.22992235927173
0.742769208819721
1.84744741148631
-1.53206781702085
-2.24235220829005
0.0858958707048244
1.22370092174295
-0.177128260362958
1.1215302153527
-1.66802148404861
1.02593006460974
-0.311725989933906
-0.510760554914925
0.310074153681405
0.386647126820649
-0.335363668551935
0.0674375447104432
0.0953419663256579
0.252779014391908
-0.888314354404176
1.22100115887557
0.377185632899496
0.929129275560324
1.28828188716317
0.356646978762716
0.920904121457171
-0.00527827840450618
-0.341725267753005
0.178000176383867
-0.148280250451918
-0.0290986509906019
1.0115580469919
0.290486081602158
-0.260556817225042
1.694526311287
0.820524566276871
-0.930291698058635
-0.149801596240128
0.531834637270333
0.427718181742246
0.720507625110848
-0.457649288201968
-2.17507439522759
-0.567904990230385
-0.325259344969787
-0.0623015499527448
1.30547114662332
0.00239564275333287
0.814862671396708
-0.171804944142304
0.806150259846893
-0.677323545693364
2.73028492563258
-0.509901508394517
0.406335547685621
0.433321839715077
-1.01920585938083
0.283374210362041
-0.950497193121271
-0.0118534261133783
1.1511637911705
0.244730365346557
-0.191208145804163
0.248272411527611
-0.0663136306618818
-1.2283014332119
1.89624807150656
0.556084484604465
0.17070523816435
-0.839243877119154
0.490500713725032
-1.07236268638427
-0.65342751529061
0.57567606983851
0.513198985636531
-0.40949571787066
0.190598185243299
1.3220730723659
0.153244529898606
0.740342346736687
-0.116408896356932
2.99025481756089
0.505321466109511
0.497214858883652
0.912805449620843
0.50549874032849
0.74050243937809
-0.790482726250625
0.956260917407222
0.0240278857901395
1.29274552623547
1.44316916358489
-1.78141790235097
2.71779728405667
0.0606752575331896
0.829806242982155
0.919857698488497
-1.59902688182657
0.786242191905181
-1.82895269648622
-2.05852905100253
-0.953290582628535
-0.338863718709754
1.97736712063615
0.908640158280623
0.577589200988164
1.50876383890393
-0.318210641575336
0.122252727622194
-0.11056317037578
0.660150936971876
0.572698484339381
0.414715639205893
-1.40810962010488
2.50738742451906
-0.49852921552407
-1.14926412310178
-2.51203427066943
-1.0839401750335
-0.9843100315339
0.821026019941494
0.120592192036728
-0.288427539751594
0.151133395864633
-0.118031610253202
2.37245779133263
-1.49725596832624
-0.855313613701461
1.69306376907204
0.395510319334528
0.106937802942554
-0.618916717243686
-1.87714624164656
-2.03077333930298
0.794707637398318
1.34752169833081
-1.12255232523514
0.835310602449387
-0.0578351558754442
1.25353403973028
0.593292353058573
-1.50893785991881
0.298980516484548
0.98541415887785
0.10614976989165
0.884265438822953
-1.11638913661537
-1.39124427128187
0.704347908840034
-0.951307727347123
0.335039326192816
-0.401877079462704
1.02415327068848
-1.15287493294939
1.00123622440693
-1.16164678177983
-1.55899302346221
-0.629707706994512
0.487106807467853
1.59146374445115
-0.77497383740217
0.700118604773902
1.36996025940888
-0.836447563205274
0.217498933458961
-0.113873308476375
0.594571425564993
0.540825956188463
1.2963956268749
-0.690509600486267
-0.354475491983583
-0.583969842213155
0.713051940818178
0.434234291806803
-0.533907806371146
0.0724051611145155
-0.970262236082384
-0.702232412007771
1.74800293589164
0.860266276422658
0.441414355099482
0.883695323775124
-0.550341187128075
0.802446176807615
-0.34721570222427
-0.219532635788229
0.215348963818125
-0.622774504665898
1.53918135289648
2.25311209270853
1.35809043353415
-0.0942155620644018
0.231436972638898
0.471885872338484
-0.0225170840025914
0.0175791231592422
1.35828884783421
-0.292643627125711
-0.687716428145442
-1.79697108041583
-0.827129650133029
-3.24107490680032
-0.990323225745851
0.450167997485198
-0.155661146403562
-1.21934093225708
-1.52847546743268
0.19219473516977
0.120269954035897
-0.115975966119209
-0.0333586770246296
-1.1205190846395
0.398912345438758
-1.99283139909855
-0.571399808485997
-1.06210292880135
0.0608483231167331
0.741675340308012
-0.111878252111285
-1.05294142017455
-0.446829810816328
1.29286923617766
-1.05390316554199
-0.473309068322589
1.48297526277701
-1.16618058451157
1.03626412838883
-1.68266928355378
-0.136723543892383
0.326351100436944
0.46545642440466
0.045720949378485
0.418132344082085
1.34652475013281
-0.462878826649665
1.52413373093013
0.177898718355267
-1.26706819095822
-1.57459556364863
0.304112159566019
-0.104685441557006
0.773711290947101
-0.436950301574951
0.0454541846525064
-0.580728597673255
1.41937685523447
-0.399665351639515
-0.0812479789747387
-1.0840905649232
0.283575736373909
0.391288047069828
-1.00238737138098
-0.928595981425169
0.408834969120751
0.952783393584658
-0.116265001091484
0.640767577876346
-0.050909747060605
1.69443826968751
0.628013768613275
0.776305079099958
1.02617931500769
2.95633819803958
-1.34285852593866
-0.268087634455717
0.777624268791434
-0.077337829302138
0.545206893751371
0.763811707417381
1.27986843191632
-1.27386678358613
1.84517253169509
-1.75324228560586
-0.0669764922393405
0.195429547422597
0.363319903287698
-0.385063215727614
-2.32935892959133
-0.345044737170622
0.898592461689383
-1.7129518755881
-0.468996636753679
0.876842298435368
-0.90645233556747
-0.60523502773848
0.937919820767455
-1.79133534155604
-0.236908258076499
-0.115894457442584
0.273000055655505
-1.23349856994042
1.16735132066984
0.16321110405029
-1.2775399388165
0.339506339033808
0.266580747417058
-0.430992004137447
-0.0832531812775332
0.58052624782526
-0.214503346339249
-0.879266353054705
-0.332805912825074
-0.0606978819193997
0.392586771069542
1.38495634788263
-0.423279083861472
0.2641065844757
0.199648110234221
-0.795343224515116
-1.60932984505484
-0.79307069712085
0.4675784604085
0.336349484248524
0.113483049861794
0.245247960731399
-1.26105159199663
0.746999323689171
0.751141636089571
0.0148778246591419
-1.86310112506503
0.827462397306194
-2.40967740932244
3.17480169984885
0.894579567584148
-1.0918772251299
0.30860801423914
-0.228942563909001
-1.31137244487783
-0.880965607241432
2.4310439491296
0.321808585009982
0.310314102409311
-1.27427234941466
-0.842733067634057
-1.00283401489901
-1.10797432553933
0.093263468120128
-1.47736736934989
0.335497945267849
0.371005401049672
1.981667565755
0.239068397021286
-0.754015587961437
0.557306056487629
-0.925853583542986
0.516406807531663
-0.549664694309713
0.201973104433207
0.257761487114631
-0.269802110001341
0.752615278058373
1.94509257583185
-0.953975253386856
-0.699863807501632
-0.348894135072444
0.483152081925889
-0.231005228147592
2.26844768746823
-0.907461100982783
-0.873346992115543
-1.08311247420034
-0.2361215411498
-0.961924702639538
-0.449058533043172
-1.39470156123963
0.165592706427883
-1.94109587245982
-0.950295997663891
-1.72743302352854
-0.11255671701222
1.68509865969955
-2.087489973508
0.407653866214853
-1.09642170085497
0.483641701871256
-1.10512500099174
-0.491640609534
0.372308970138162
0.238524528653112
-0.441418566641188
1.58489960922158
1.16120209398653
0.966561510424058
1.0749698549991
0.261851345472459
-0.070832068312167
1.39179282672285
-0.428465340502689
-0.636817002917324
-0.868140366309653
1.33244085476353
-0.0295285185618002
0.144046230369819
0.425710933801716
-0.83672626049443
2.54948889123563
-1.2963601942763
0.0390132428539952
-0.268336144377562
-1.19070248072135
0.384022885869982
-0.7496326954991
-1.66055696470799
-1.54777882637008
-0.98751072058916
-0.841803866466071
-0.663366509170473
2.13116131555538
1.29832562105783
1.45985107780579
-0.526615339785255
-0.336781113599991
0.870954300204848
-0.812372970866512
0.308082725883761
0.672269377806339
0.714604028655867
0.364478521828903
1.2122697254831
0.912110479517668
0.170082301018164
-0.569066477637159
-1.014687406056
1.71657661625222
0.0666145963770763
0.765529784975165
-1.69759601809589
1.85034055386845
-0.220519182098932
-0.625652301400322
-1.39322364123002
0.432868688275695
-0.0390883235593419
0.170559612162011
1.7989729577118
-1.42592486355752
0.360280976459035
0.68521696016382
-0.929046910143413
1.37517990162744
0.458900280041089
0.204083595801267
-0.737634435205022
0.381652128493722
-0.1614346117316
0.496692564321473
-1.72664168642508
0.0571831301424679
-0.706873772787644
0.352763011818015
-0.107005878635345
0.908340007534853
0.598685575688682
1.76000348413118
0.517978751998017
0.809425940479922
0.0981169906333571
-0.515159555410522
-0.421193173815002
-0.883908553836331
-0.733623048853732
-1.19481864661521
-0.864075900306589
0.876791674298198
-1.28320205215034
0.305379929993344
-1.67402263482953
-0.110576074458969
-1.30380961955688
0.843998011422002
-1.22238761009113
2.89298485736388
-1.35634349311281
-0.195838489545583
0.399531129340512
-0.641266349263567
-0.179368971831516
0.181558559817641
-1.38929807321352
0.8912238985968
0.90421249958913
0.0138122949008657
-1.23748259945775
-1.69853376558713
-0.516894575119229
-0.572269993663304
0.310620089283473
1.13496118463398
0.216669805656164
0.431626426498202
-2.09897881033261
-1.25533793730732
1.39710963661345
0.359615375774778
1.56966805863332
-0.378514376557287
-0.30161097431657
1.8336091703139
-0.803969617589582
-1.23655534206994
0.302352410115898
-1.200699894242
1.61626017603535
-1.11090312208723
-2.66505193926552
-1.13636008422087
2.01655203581694
-0.0409203512028737
-0.334459003896208
0.531513026828556
1.01283391765868
0.457470492387946
-0.382358468581897
-1.25163201384635
-0.68932806469479
0.56021582259529
1.42140072890045
0.996713011653761
-0.313598015805054
1.21984718203468
-0.46739822721105
-0.552657254245129
-1.47579772669619
-1.49956776255567
0.262085621699608
1.32485266443783
0.461053220372227
-0.496678783811131
1.07886165071873
1.22388807701387
-0.737173140284895
-0.5369863692122
0.315137339257265
1.03761426295477
0.397941265398274
-1.36539143485484
1.0803029359672
-0.200339269907105
-1.20348213426647
-0.697619058223864
-0.619783100614129
-1.12405285445194
1.49646192447129
-0.00543471292341349
-1.74507150256627
2.09145700587576
-0.329665214135583
-0.539040261131833
0.210207470425956
0.218545266063257
0.393894420405678
-0.476195534720658
0.628008377926492
-1.20893645814373
0.189503658517541
-0.162490130794223
-1.22978102028161
-0.669317323333941
-0.0841258575586131
-0.907777591358462
-0.162134603322981
-0.700488211729693
-1.15252433696078
-0.176863855263511
-0.517766398685526
-0.288201986855694
-0.710960106330875
0.526930382865013
-0.957887527969159
-0.572448588286865
1.09188912850221
-1.19977245052546
-0.315418418376287
3.0421788535256
-2.12896410353223
-0.100822967575419
-1.33735006634837
0.958778106733698
0.424177471249386
1.5267110518311
-0.302117438549631
-0.0854243371486955
0.664555571666016
-0.484839995814071
-1.66305542294334
1.06565281631323
1.53316363654243
0.648096167708775
0.241205227812986
-0.928194647363748
0.0427566957200859
1.18036212966773
-1.2266159427183
-1.80664711404518
-1.15291168243959
0.568937613624469
0.921993188911065
0.150200806282429
1.29191291965391
-2.06464497480807
-1.11151147974901
1.2097366991631
0.494310244290597
-0.69773524575525
-1.42654059204648
1.4090403531353
0.964650222446116
-1.31115228701294
-0.770907590065822
0.544948857568838
-1.57981468741834
1.41461567291974
0.416386936680561
-0.550189931165568
0.6509216773559
-0.084332004001337
-0.474422154671496
-1.39208412996897
0.677747077459756
-0.759435252443473
-0.301479929379436
1.1348133450426
1.40359988095872
-0.72095896270502
1.55018265508865
2.36200360274106
1.4894413107013
-0.219644788156114
0.447661193984633
0.892685717841392
-1.15708349178444
-1.29912834142216
-0.332839861637057
-1.29514129634328
-1.15548496832435
0.49286813115875
0.0510315671746738
-0.135936715027895
-1.15578758332226
0.215852383221734
0.663889141160575
-0.204168551910977
-0.0113349525243746
1.25760302991893
0.786069307096931
0.294544028739395
-0.616885470001303
1.1753649090447
-0.862395116298294
0.298880139136006
-0.433598093858227
0.173533114073429
-0.270199474563225
0.30501183162584
0.143484465567841
-0.0251478826872969
1.40409619084126
0.622529680360391
-1.06231296808565
0.0611713897085044
-1.65525450969973
0.0502522540516919
-0.740575025057796
-1.00155806222526
0.901149046025765
0.122060022867053
1.95833419927688
-2.09852563927434
0.615479529262198
0.37143844582819
-1.41077506635446
0.973104777030795
-0.42278093257312
-2.53132909092636
0.895827127931116
-0.297916625378463
0.818440280218009
0.473388686133529
0.829501219788535
-0.501680694782377
-0.581781434809463
0.553135467581453
-0.312054243109223
0.856476140755506
-0.310432061782026
-0.254855257763344
0.331967065633234
0.17142105263629
0.499131256777032
0.937984361012523
-1.33839309940679
-1.27504837502667
-0.523045747726794
-2.38770335710678
1.48807149651907
-0.465216667625315
-0.895899590514323
-1.16885584381804
-0.161156959821465
-0.815781625103342
0.121100097563104
-0.127955955144199
1.12957069804784
-1.60865816165319
-1.0417700179368
0.627982852439997
0.00388958900496313
1.25357296939417
-0.526922681556149
-1.13704618469552
-1.68296007864141
1.70277565911803
0.662212397169689
-0.597708796302281
-0.63904279413769
-1.04687158583475
0.338600373619144
-1.58161631915467
0.299506947776806
-0.771019215579817
0.698497972824201
1.25421885485638
-0.292823257446255
1.05705705929636
0.745735289157861
-0.0207611750102079
0.900409728086398
0.807233429987835
-0.576687205758064
0.335558280728637
-2.17095165079891
-0.104119529336236
1.28044469745457
-1.15567197582343
-0.759365140597848
1.38470837741653
-0.898914669139825
0.372370629574437
1.10268622851057
0.571986745134725
0.546155550275685
1.8436339260699
0.729587385599187
0.186970999084891
-0.584874887609596
0.783480948339565
-0.804232858561753
-1.99083330415069
-0.621480670596135
2.046269858701
1.21868108656512
0.338970592528638
1.63610534078328
0.189345809995168
-1.25386276839044
1.28804347067625
-0.839881757532165
-0.632798558663061
-0.870343662483894
0.69749123484715
0.780697304990125
1.976785642304
-0.238303066473034
0.296290568635276
-0.446798313553727
0.679535670245427
-0.60973624804918
0.201617565607899
-0.0919571586585518
-1.69427620598561
-1.06309554567918
0.768849087427818
-0.0431041285729276
-1.67402239103681
-2.08889943279762
1.43899522809129
1.1268138484757
-0.218475341783817
-0.493120608040864
-0.62189364805579
-0.394489466624823
0.629188769935659
-0.565458399570806
0.400684018177563
1.97892226588685
-0.459854236708337
-1.27971009916099
0.0112857615856679
1.35857497610127
-1.37224083601953
-0.0974397257108246
-0.150463994095848
-0.170115868431142
-0.716547294351673
0.397032558954239
0.764793601478949
0.159792228412875
-1.99869834450304
0.75132165628463
-0.509221888389743
1.8756572671781
0.450074151685967
0.935672347207176
-0.252871141833878
1.17990227807017
-0.289742859490295
1.1092845070035
1.51970788880545
-0.0232145151854034
1.37521457555442
0.719285099217823
-1.07811456684291
0.99737931436517
0.554726900120918
-0.137597342481943
-1.41083589865542
0.500734535964715
-0.867637273704813
-0.0342614131111022
0.488902456060579
-1.29687831828428
1.56062724433884
-0.950787254713251
0.155270577539866
1.07577164054976
0.856221012594994
-0.12190013820885
0.74645480959011
1.02961611246867
1.85157178575828
0.86797602118727
-0.399216955276507
0.0509006907728818
1.55334000545794
-1.76404118574395
-0.149675426192803
0.285013967032485
-0.946453809091305
0.309109146957465
0.365613721465941
-1.20195696108123
-1.08110450550126
-0.47157828763856
0.212751593968322
-0.845143554970059
-2.02100282448458
0.219018507849876
2.1598286799459
0.257213636762516
0.920757135504196
1.27838546277324
1.61352990462838
-0.575859681811751
0.566406920783946
1.08339056143006
-0.319337562568017
-0.127717608339479
-0.0499596859520479
-0.579173201279503
-0.262724224890852
0.687222769907449
0.193734578221787
0.14446357710427
0.321621943434663
-0.659271120717666
-0.338418489980493
-0.52860133415647
0.417811600819314
-0.351611621751476
0.105775809519442
-1.08986816252131
-0.00960954769979679
-0.845104411092994
0.125891853432559
-0.311629989889562
-1.09054395400138
-0.717430636190409
1.66318898049544
1.03826204645762
-1.41692231040869
0.842340271764257
1.9400082643224
0.538063483271316
0.241934372832627
0.425012410086459
1.00714164660118
-0.724943228103672
-0.348621848539153
0.309737191107348
1.15835779921437
-2.23858213681626
0.165759812632359
-1.02668621632396
1.05566620193395
-1.5003379306662
-1.5558034689687
0.574880866333834
1.04250973605501
1.01198320153467
-0.62874232852464
-1.78005386925497
-2.30569171673914
-1.04779257565711
-0.856667176585052
1.06158483633536
0.620099079986627
-0.872679918677202
-0.953718588912502
0.557347869227619
-0.618482360410099
0.395431380315062
0.982659634230152
1.89297310635604
-1.50982934792494
0.624037049305277
-0.835852343998983
-1.28728344194237
0.204470117467645
0.750984170436355
-2.18151735999488
0.692650898795818
-0.204107461077254
-0.0147978667855601
0.252336546959929
0.442424053227069
-0.155083909539836
0.352207332279509
0.636627373880022
0.415808414186015
-0.0108433811135059
-0.881902776210007
1.57883526618399
1.30758060075718
-0.159174242100261
-0.569650825266903
-0.613372121507797
-0.109101397904481
-0.606158210546665
-1.58229466197142
-2.81385301519086
-0.787012412049598
-2.55225788989855
-0.740553163057555
0.336649375572745
0.0671899869350107
-0.141185091484432
-0.138815800759341
0.633767049117955
-0.488120506762696
-0.332385345431058
0.0171443825190963
1.48883201304505
1.22430001264868
-0.150478049346313
-1.43485419613268
0.829698681745016
-0.726966817613731
-0.411734592748669
-0.287275651533861
-0.690668369552268
-1.30796379427085
-0.217405433537329
1.34425881892946
0.921218029593872
1.32361369497689
0.246044219737281
-1.56768422725216
-2.21614805309487
0.262109873706328
0.0225805915335044
-0.423855068467887
0.258903009947022
-0.69284127468492
-1.5523173411661
-0.736130579763096
-1.20598253488911
0.096629855147198
0.0710531084697645
-0.0556134033213418
0.596560446965444
0.20118206751998
0.212240735292407
-0.443138085968093
-0.186770149554339
1.97975363389966
1.39507899241495
-1.31486865715727
0.965953186047572
-0.214798216998687
0.686969643036654
-1.31001426052183
0.514794431448082
-2.12568054264273
0.429388435861322
1.35806557428632
0.51110817554587
0.5113581142661
-0.0909154259510703
0.907883730006766
1.80848827922073
0.917419880926977
-0.668453158140775
-0.624509336591853
-0.182375697878749
-0.476686337610438
-0.662985420018878
1.48997818529583
0.988984556605942
-0.22417617741265
1.57258131317205
0.526205211168255
-0.767448733316801
-1.15324300557511
0.53912527152863
-1.70263083395136
-0.549183939250579
1.05043540812759
-0.161336667750748
-0.702067188760659
-0.160134728879672
-0.564755525109236
0.76995403798422
0.897924188642801
-1.14355253220394
0.171400759414986
-0.199708861290429
0.120908774197076
0.261684946605131
-0.791844633901715
-0.332472435522381
-1.42853968755316
-1.25461259677155
-0.19544649301603
0.0356170440902224
-0.236612846916501
-0.353780231769635
-0.638163533651721
-2.23142030463412
-0.846103061417129
-2.09483881824784
-0.347245417369934
-1.45628266003962
-0.762895673337225
-0.772433058920769
0.634654366741211
-0.799337139639938
-0.991621484253997
0.505120887793527
0.666903986935768
-1.37894685976829
1.36879636936108
-0.802388367112733
-0.696169894171617
-0.604170236640486
-1.96240913788747
-1.64978174573595
-1.26658082273688
1.79153187717433
0.777388140491271
-0.185262742969242
0.146861028530364
1.20831426228433
0.202533584714034
0.270016995529973
-1.28672847874791
0.899259464015608
-1.44313346004782
0.34686166050583
-1.03822730038174
-2.17278613733883
0.0296112337320652
-0.808096213260598
1.14427115328489
1.7416099871194
-0.799952812391086
0.579700351835592
-0.704918900183744
-1.42231383763963
1.57719097466212
0.162441346544528
1.86071801992191
-0.651412978994419
1.37446751984172
1.51099369302081
0.222385219974348
-1.07116216214577
1.21541932704701
-0.388936353948052
-1.01703976170199
0.187634108630641
-1.54350843979257
-0.293526205649252
0.844675538162538
-0.886447887812862
-0.692269343945602
1.99144541245235
0.313849916299153
-1.01747090765522
-0.781994516426364
0.814628332293449
0.688624964322741
-0.75734506670757
0.334636291485436
-0.569177705296138
-0.850588883208509
-0.473601074119091
-1.62950437866751
0.333931138878573
2.11909513563733
-0.128389271980194
1.68208360786816
-0.967144013845888
-1.48428568168195
1.1207950023306
1.38970310439389
-0.755588917464121
-0.947880946232333
-2.21119526491226
-1.52771702189033
0.319828175085329
-1.18558882338724
-0.543370169469956
-1.25249490669156
1.09677310963686
-0.480626496969291
-0.168886151930251
0.90028985905055
1.4711640480241
0.907484053334363
1.34850247289484
-0.731539212062608
-0.0937097702971332
0.632889027659347
-0.439163492748372
0.0643973754831014
-0.581854981943026
-0.321858324181746
0.916474835035259
-1.23759921044268
-1.2613850653631
-2.62119023673176
1.53418779177219
0.44563647374806
-0.326713636583789
-1.93828028618906
1.23105676780382
1.57146394392598
-0.909931020609905
1.26808947772804
-0.206224276724861
0.179380844513172
0.771123190296552
0.582207799370402
1.06406803783533
-0.405304470413686
-1.31326888740981
0.371271939441487
-0.76553012970995
-0.99316580110212
1.78432030767892
0.596397221761434
-1.19521238406111
1.25876727897114
-0.891144421177167
0.435890568346795
2.09971365249444
-0.335428244978124
-1.11099844870539
-1.57237957062901
1.2284939651725
-0.752970073057304
-1.02513738271191
-0.00811001581908177
1.0060091017403
-0.0689392701208162
1.05833911708594
0.00552754967550963
-0.308494268201785
-0.381951020668186
-0.279304843967012
0.224491907497379
0.579353052525292
0.446680515230501
-1.45843834890068
1.56286089577789
-0.845484967066644
0.481624537308101
2.02488230336273
-1.26614869336112
-1.25703097530317
0.778836878148037
-0.47438932650015
-1.21628329192052
-0.861494312958439
0.00627146815264323
-0.582805146851645
-1.24093066192425
-2.38484880840956
0.424272975025432
-2.14512945469988
0.639388176370203
0.181989903047542
1.29248716108005
-1.32212885372755
0.284227474796118
-0.576528247091512
1.12072809029573
-0.919488032962371
-0.199601509617428
2.4152622441596
-0.231432343158939
0.252160421325951
0.0572214318788177
-0.70692200985018
-1.20260435318846
-0.330810921843921
-0.37759952242054
-0.0912800572593523
-0.14027284031016
-0.864302203928471
0.937742315314085
0.53478285436157
-1.28681354176441
0.275656382482151
0.0798531753797188
0.0734574421170131
1.27998185312256
0.491422440938853
-0.23599051877636
1.19161147512704
0.416302336168058
-1.02842057736215
1.8261637360182
1.10788516672099
1.35418845138585
0.233564388641937
-1.12648949778364
0.245646249106405
0.0897110902801065
-1.45782508320126
-1.44879969022305
0.12153107740221
0.27017789262254
-1.17154633717451
-0.0193858549003953
-1.97414875428867
-1.17835299050546
0.490755711421586
0.773867745484998
1.11118566339773
1.00023723387959
1.21031792317529
0.0117399965472142
-0.872053000392289
1.11269257487176
0.868142494326746
1.96414289695503
-1.42899530612124
-0.270097548869799
0.261842888972671
-1.51797802618582
-1.30683562754844
0.32917412047518
-2.15660328699614
-2.64390991817563
-1.8366425856379
-1.56202659939623
1.45843736283462
0.379970804044896
-0.461782280613057
0.993484560215003
0.394256374243497
1.79248857660667
0.497276008830932
0.176388657878666
1.14709138644138
-1.73192955251471
-0.000869068610431414
-0.911960149525218
-1.5357666837284
-1.39566940976498
-0.909922660940385
2.17961319311945
-0.769956305665394
-0.496485028828318
-1.5751798394484
-1.27024112949943
-0.163561915108497
-0.973682282565658
-0.72742075785887
-1.01605253800293
0.634940482174329
-0.945206680377593
1.28354589480329
0.400532938329534
-1.07514507058281
0.172166854258879
0.0308403065276923
-0.496299180212014
-0.0194438809496328
1.64182138604404
0.1967574352372
-1.29888093158913
-0.133564402391633
-1.63484480884334
0.354318168502169
0.134691533041274
0.780236492350845
0.382188019095327
-0.787711595188111
-0.620203906366912
0.382534624024099
-1.89085797741813
2.04593883531305
0.455990364590871
1.89785391415381
3.10534799996109
0.26144490603261
-0.691390342416781
1.60888213816779
0.536689417169594
-0.87162211622824
0.186771798168684
-0.831144492292695
1.18139754121025
1.09575948078244
-0.136272264394745
-0.210134401069749
-0.78964832561416
-0.579724065528302
-0.108596778004607
-0.138151845099913
-0.798598083226602
-1.10664109238201
0.0952685185411644
0.929598035116766
0.332930990304178
1.77061922606021
1.46710857884062
-0.470222657073358
-1.03081171813097
-1.3313085277595
0.267612893848346
1.37884298134725
0.929492561213146
0.270163479696364
0.798640979914601
-0.425141720233893
-0.373903784062657
0.747082522476363
-1.63480455073438
-1.23221145291668
-0.337184326106312
0.353003735261045
-1.37795017858342
-0.729425504333717
0.416838697918602
-0.165788992569711
-1.16160989988612
0.751136736139976
-1.57641260237705
-0.39787292381108
-0.392298086468393
0.566342639238684
-0.174768861802371
0.564828157487073
1.17346401775646
2.29040291127451
0.267750243450715
-2.73226644724097
0.0407310864103372
0.40184188661173
2.72678061235818
-0.935011714337024
0.498273924388902
2.29758586043929
-1.09156135682061
0.475013439068336
-0.116989016341876
-0.82584521137697
-1.33505557902269
0.321314450031011
1.1542268668049
-0.613862766880719
-1.91466121434911
-0.26596256210316
-0.278394378377401
0.131389217787994
-2.30900839525704
-0.812286202245001
-0.534729172085801
0.818591379652314
1.19985366796819
-1.2776052862583
-2.50082539918641
0.975203281171275
-2.39570002396738
0.690052671254603
-1.18015723403759
-0.63995092623621
-0.0212060165326771
-1.28273299758368
0.287300744384596
0.510431891405622
-0.983243100520186
-0.841966360626402
1.15638504529446
0.204285113594231
-1.54754821100242
-0.457532389389304
-0.665175600071071
-0.00647474137044926
-0.741623895596222
-0.0252482395272335
0.310246670326136
0.0558168630757698
-0.78742305475494
-0.363127663757828
-0.174535241049664
-0.91387219870242
0.510944029796412
0.193965494580356
0.330766540721766
-0.652434159426095
-0.438236537280728
-0.0593994808620651
-0.313380076108144
-0.709507021901989
-1.32999754064364
-0.309741071431086
-2.0639543615126
0.589523197986907
-0.858314705873093
2.28545399943409
0.0270021078463052
-1.09587174886034
-1.02726321466258
-0.205314766553792
0.0294218587185295
1.00275836912805
0.0173062469476521
1.2735335746174
-1.07531279028892
1.86053471033218
0.888886108171548
1.02301312670038
1.03101729332381
0.428885085809725
1.66880891435995
0.9366904187971
-0.627275773384444
-0.17490337904154
1.05430639305819
-1.14771251045817
0.158380740590281
-0.350299966601353
0.305773296272283
-0.0366147316317238
-0.21303839034914
-0.117406402596081
-0.296752488199588
-0.655318029557451
0.944017789395759
-0.871515486790035
-0.370191474125177
-0.328472664851557
-0.111942474241123
-0.0967445994309804
-0.556732819616851
-1.69771426088426
-0.300117407458491
0.0796924130952623
-1.44472866676128
1.85430204988923
-0.495720656602803
0.563297936697786
0.843402255128748
-0.979966109557124
0.188588818740532
-1.05236072496242
-0.59554793535626
0.432032227825253
1.76359542954511
-2.22366130310522
0.553925360695005
1.7160941298683
0.895128680071468
-1.75695950398755
0.513443942451632
-0.631804413079563
-1.63127843213909
0.642766366838588
-1.61827502984873
-1.55973479966297
-1.68537385068247
-0.343174934731146
-1.63447154813189
-1.07443428929435
-2.08130132367274
0.665842636615968
-1.04955421921861
-0.740112892170775
-0.0962922703221687
-0.134127156451921
-0.791072645733911
-0.480764774265979
0.195864559552533
-0.438410329630055
0.974481455190964
1.16664909431706
0.850829495361045
1.2753870308063
-0.109627244676327
0.260715868775884
-0.141686452382892
-0.103725653949645
0.675983715320462
1.3174537875216
-1.59864436017058
-0.303438735913632
-2.25661772820468
-1.79206339054492
-0.0608060555678784
-1.56823456830257
0.87049080492303
-0.675020450671286
-0.707948947307726
-0.762215903413403
-0.0418702627803025
-1.55261878999109
-0.124054468368594
-1.49581940016436
-0.785036984797822
-0.422688756679241
-0.0574999210151191
0.450974481686073
1.3480435139677
-0.778140494210764
-1.41763390377113
1.51769720208331
-0.163402520281199
-1.75854816536862
0.532098431447409
-0.769135416143762
-0.667310451440231
1.84000302475735
-0.00631439589252131
-0.421230125864246
-2.33115967849454
-0.803251873721944
-1.99899969961868
-4.25722079813689
-0.219284095190107
-0.217209829156435
0.585823998583601
-0.298958234375715
0.355253344890812
-0.428788809790838
-0.702298321398829
0.820010573613013
1.23903804586944
0.404831807061759
-1.19021873716842
-0.827638304024419
0.341211713438025
-1.29300515002467
1.94207713242761
-0.190664413395708
0.150374583954753
0.88890383481957
-0.685672731101892
1.38752650170815
-0.600050013979208
1.01773004025122
1.97770556760135
1.32756599075384
-0.697658360405529
0.412115813198414
1.02631390057155
0.0307049047306756
1.58060689933011
-0.360934455408919
1.42086165930149
-1.03473859012007
-0.112009454079939
-0.883599124387438
-1.83065447541521
0.853755946649092
-0.62454256100378
-0.128554576353602
-0.967328937439806
-1.66990130514123
-1.69894518485191
0.326933401947157
0.28007295094153
0.0327149224087548
-0.131394515773936
-0.933953961327285
0.673732795959483
0.380136366400387
-1.45569405716439
-1.45375836646353
1.705259906571
0.376200940267184
-0.232782928717126
-0.281935861988219
-1.6268291644131
0.128254302455027
2.01371538370644
0.877793529442822
-0.256556764760265
-0.015785413006261
0.403568219036104
0.0742395161560364
-0.524595685819134
-1.06130213087593
-1.12190326913766
-0.552228242590574
-0.64975370277224
0.367245203377464
-0.140223810061235
0.563675546928791
-0.504762697293711
-1.31303303029579
0.341870472509749
-0.863888812970102
0.856619812081443
-1.28074484914774
0.130776537449626
0.760247301595015
-0.831960430783928
-0.0809249749652389
1.94760727285832
0.921206837011801
-0.426655897013407
0.640225545124193
0.226245091900128
-0.26374608112888
0.261297035670269
0.341398604130739
0.935643247813877
0.426496499356336
-0.0148747307942775
1.7308439484705
0.71036032133895
0.0679543028769596
-0.251245301253823
0.828285954309226
-0.45274860450657
1.65946157356303
-0.524653883524786
-2.83554865262385
-0.785743898316943
-0.0288950752009177
0.490236156106869
-1.04732807780206
0.542127880739146
-1.04899788791089
-0.475299269054323
-0.515566075332694
0.273132438350093
-0.553482084037037
-0.31974700049628
-1.0923866144346
-0.423911624589007
0.728373728454489
1.73349654899392
-0.091565382274128
-0.656085624932998
-0.18763782562593
-1.3724436644024
1.0200353894674
-1.26036002898618
-0.17089082869887
0.0826593241362779
-0.285471276578498
-2.86021741966246
-1.47236689732568
-0.520043402330076
-1.29874144355305
0.070204598296702
-0.515367431649794
-1.06296704205547
-0.423780688455484
0.577477326899528
-0.039655171336356
0.396563883028484
-0.0228874028489176
-2.34999934943284
0.456984522343016
-0.330995893539111
-1.04991385317633
-1.01467235024815
-1.54790623543423
-1.00710468105954
1.94462002254711
1.66969278525364
2.19050214242955
0.272853403683125
-1.21845232536022
1.08069482261853
-0.878041655980228
0.734588270635023
-0.294953889942484
0.81370696443915
0.734417702809395
1.82312454075703
0.15433320586826
1.75947555173185
0.18495003377305
1.11345710733939
-1.22168479229313
-0.646628537786921
1.29633779726178
-1.87910070067994
-0.171188191995303
-0.846709553045228
-2.25780713737392
-1.78140707265655
-2.01594177490856
-1.25866451792323
-1.6875123631311
-1.45980404491547
-1.21797704178679
-0.897418275782523
-3.11009932229682
0.760752238657117
-0.546411739039851
1.94474164571949
-0.940194820714236
1.71936033412424
0.378336918098978
-1.76973323855353
-0.467701130268139
-1.64191356650433
-0.748027082920589
0.407234498591303
0.293503092619625
1.20072789900302
-0.929058667570234
-0.58364633757167
1.39297722161083
-0.164447434397803
-0.502365550092479
-0.313752521214914
-1.35245390219806
-0.0612448446368387
-0.466784715172517
-0.183607687682337
0.297326978032236
0.135967864919357
1.52105847487992
1.06608944474324
-0.538499229227205
-0.745587984289327
-0.693601959531085
0.872227392362281
0.777849545875562
-0.461684471999717
-0.55995755474566
-1.05813767071855
-0.0890537696427882
-1.09883219808928
0.505207674813137
0.657096785320713
0.318444755118044
1.88698738016184
0.282185410495226
2.4919225503515
1.76701771497158
-0.93434139999694
-0.332032341991306
1.46133302163923
1.18466596488959
1.25065596362392
-0.379437896335622
0.0939249406613996
1.98317969646272
-0.976909507250019
0.153720487620943
-0.313312150375567
1.14256147832807
0.947738138495738
-0.342509325917352
-0.232419563197105
-1.29720959178533
0.473028837897573
0.0505813584548663
0.85021209956641
2.15524676248146
-0.174454499152602
1.90381016288494
-0.476780574109408
0.235323037432507
-1.25384882200088
-1.66966614808911
-0.509038512474399
-1.24071436476182
-0.601918246036907
0.195623188978102
-0.842217739905575
0.61202770963138
0.310592482931203
-0.886185552251349
0.774174187775571
0.0509504185448127
1.10890945327858
-0.829267878004665
0.301936500404173
1.1912649885886
1.12130883494859
-0.0212039848527522
-0.770415509980167
-0.869075125965545
0.974768539083693
0.00743636445120911
1.59526009843236
-1.64564492419614
-1.45631789153892
0.0134503817207537
-0.627530329975713
0.71630663508045
0.048637426122374
-0.50792958448124
0.472904857939504
-0.667896140968388
0.622823650627616
0.827710605909771
-0.0894005812122816
-1.78543977194401
0.467345318729831
-1.63963262158804
-0.399773862683729
1.20761982276734
-0.189838654610787
-0.172397619867401
0.347126690996462
-1.2728342650639
-0.135003772173741
0.640925808773203
-1.09942548492568
-0.00672993433615522
1.22991515607838
0.0791589486574952
-0.770510217544
-1.01356262642375
1.15804390440615
-0.454199650863269
-1.47160352394749
-0.00858304233029033
0.699268914121301
1.4039341461918
-0.470613970916998
0.534677768539333
-0.218552795897035
-0.637219014204908
-0.434737527532059
-0.426665114364051
-0.0183919858866895
0.125294598402611
-0.187710515861076
0.139727209857194
1.68521646032025
0.32690247214961
0.0279958507328129
0.107923759509885
0.898071331265668
0.765022470185365
0.0129684959670881
2.47523776854223
0.769743102486949
-1.92254947335313
0.380231586786652
-1.13571674227998
-0.79005887214294
1.78021699099496
-0.368630833457563
-0.157558569755321
2.08874901891482
-1.99853932871897
-0.388407796160059
-1.75984143445151
-0.633509624501723
2.4894393730247
-0.837691012343002
0.324043682427379
-0.399263513361274
-0.924215844286201
-1.07146323557472
0.158092230325079
-1.29082735957049
1.68389638344481
1.27184193606692
0.699288579982316
-1.18466165776283
0.0959938617781758
-1.72539979775864
-0.290490742425657
-0.64073410453183
0.100098120273825
-0.954240043805707
0.181070784383162
-0.716956682830829
-2.07909244070152
0.163756443023194
-1.42022082799558
-0.000951128373350017
3.400300955741
0.563828198203128
0.670373828566981
0.392604382607528
-1.61287460621108
0.400568779455743
-0.967752586351864
-1.1102900580888
0.657656737154903
0.00279936860409524
-0.219841410372703
0.44639404670204
-0.209081820690959
-0.224929752885411
0.621212712296482
-0.694835595661373
0.955358384260865
0.705271594630441
0.856103833633555
-0.179857005617011
-0.211562720014262
0.0630760797491124
-0.566348492351968
0.189367212390781
1.57700360486208
0.688988338012558
0.212107367781617
-0.353243922544999
-2.09831922922754
-0.640941478971283
-0.584672552432572
-1.30543581084961
1.42412818170608
-1.65786963136148
-1.98912890437429
0.568135882789178
0.881038184554631
-1.10885073415596
0.725141658309743
-1.39374177286644
1.09362137662911
-1.25935960386992
0.754359388428744
-0.842139870720539
1.28107707197798
0.673841681986062
-0.893028142693063
0.312791419415787
-1.21570332564121
-0.402628662834146
-2.47425950802589
1.0678035870803
1.22270653648136
-1.26865977408214
-0.774176802353508
-1.27562936837778
0.777681292493604
-0.439066202124122
-0.152948691259415
-0.316096835836398
-0.0178154426719593
1.53445330453263
-2.13107171050721
0.0915412551289889
-0.868944048504901
0.132965854693785
-0.336800622196571
-0.796042274048361
0.172515875447303
-0.418808482003242
-1.95730088788407
-0.841740276201446
-0.935271900598765
-0.672377923850439
1.7421565400655
0.539058683838755
-2.13592430324217
-3.12105628546272
1.92337811748553
0.208258249185633
0.324137279153663
0.755375701144107
-0.29290769711367
-0.727758355368871
-0.203937794043315
-0.368144311875012
-1.66186864805215
-1.36620389105982
-1.02005131362102
-0.683009605214809
1.60646059094322
-0.88709636888238
0.769416148321292
-0.727481557751473
0.818247623120216
2.16363595794286
-0.204622252221354
-0.592026373826147
-0.792321930354442
1.95426987889305
1.56446197810665
-0.827145529564655
1.01775296577013
-0.174128516937588
0.140496085982768
0.342670815104179
-0.679550285850333
-0.928755831073087
-0.392060694304943
-0.833768704787931
-0.570772808742556
-0.0498224049233472
-1.0636043070727
-1.02202083410644
-0.157858604737441
-0.13494519681459
0.598962725500892
1.36276015010495
-1.29525134962663
-1.46184920340943
0.551846721204995
1.23913292889643
-0.738396261162724
0.0587908595541758
0.128820548176511
1.9985274990145
-0.64734850386715
1.72816128001983
1.21358495621446
0.125236106526625
-2.52200481429712
0.642265627483552
-1.83547714406985
-0.204971426853672
-2.28244840699844
-0.731197686634997
0.482054479884427
-1.20968668867774
-0.314739194037365
-0.841639586537422
0.81857613363752
-1.90573439766757
-0.740640634970928
-2.47450846814675
1.36925167092274
0.785731128496089
1.79347778196772
-2.06638048550859
1.08331264581988
-0.186620349842049
0.288345148226133
0.0623061493267313
-0.961597381236452
1.48816875192855
-0.98138861101181
-0.0880291344569696
0.93497790006557
-0.238407931012767
0.575628059072056
-0.476806921979398
0.445229908977423
0.256455124909385
-0.445410243410865
-1.20527095999078
-0.214496211561474
1.94821749688448
0.361528789034678
-0.88370052746854
0.472358270578519
0.00881001211198477
0.290125414611026
-0.61207786124071
-2.11940451402021
-1.98711980983551
-0.771927228595968
-0.270333420683881
1.62653458147263
-1.33606257376737
-0.143314186357793
-1.17661566997993
-1.58739147386995
-0.360002033429307
-1.40911679441793
-0.159461817104486
-0.574892485318094
-0.883651245315992
0.132575286401341
-1.29158814918486
0.338861786271973
0.841579649347773
0.218001597893353
-1.41088634552777
-0.258489398851822
-0.103909701257582
0.438400363361127
-0.461104394931534
1.15601408083661
1.51074204237933
0.0206830294036555
-0.102565252706218
0.168057095258497
0.0676327350110081
-0.882072105357472
-1.66609633791351
-0.0496239734964666
-1.8700068408864
-0.442451262230867
1.51257344548092
-1.64618772911023
1.25383208786403
0.0822660384302283
-0.975335062754404
-0.069789445491983
-0.0669380077451414
0.702741323924917
-1.13721595773442
-1.08216952536962
-0.685764805514494
-0.38472316648101
-1.31179831446487
-0.422674595079016
-0.120741363441369
-0.288958349092616
-2.58564471147419
-1.37337201948637
-0.464699528840024
-0.442375808153835
-1.05314422744239
-0.0840541394104702
-0.746787569019792
-1.47461769060804
1.11945624849132
-0.0910392563882071
-0.248272159885946
-1.55531802154647
1.89534090648312
0.864409941829405
-1.48163661449492
-2.21025917303117
0.866706829128764
-0.462158281830601
0.0317535423189185
1.07481482403019
1.24242927464404
-1.67430685580344
-0.869112629982485
-0.544740360208637
-0.780657164330314
1.22526089911123
1.91732646361715
1.01175119538174
-0.629994881112894
0.611506608797786
-1.08688025014845
-1.39990258663651
1.10712508354433
1.97053485381662
1.40720311947835
0.476465156263291
-0.219231759547059
-0.840210230469431
-0.102384336574148
-0.0414030320507776
0.982456041369545
-1.55775952151754
-1.17660748045685
2.07498314819588
-1.40685634982755
0.484570075577636
0.282237718836386
0.91236496927797
-0.461202057803746
0.485781038628602
0.0114687450743324
2.00194239905167
-2.60919018835361
-0.777073752227215
-0.427088297564912
-0.0114672593338798
-0.388792722055149
1.00456725492155
-0.478218665535222
0.515452899704284
-0.528633808955977
0.100962228167203
-0.674695336680915
1.5591318513408
-1.78639917629095
-0.188113089976991
0.103996135696812
1.69430771288618
2.23014053071846
-0.781626997972327
0.466377783509987
1.03199068984331
-0.510142481763519
1.22855367934139
0.353777802721034
-0.131399650221956
0.261456097605246
0.0650852640443829
-1.74759033980661
0.750895915781933
1.66559721170535
-0.0289135009126635
-0.0276986079723111
-0.898762087562585
-0.174893765341719
-0.402753616977429
-0.159114397842226
1.22176867267351
-0.443814066432339
-0.235751021024245
-1.03864788142767
-0.173414350437782
-0.430692654798407
0.0324479759160485
1.14329161918683
0.0283818506944075
-1.81253701311063
-1.77147276807301
-0.786480771011127
-1.85968787290958
-1.66102157819492
-1.25527704276266
2.3535712680084
-0.726495389884096
1.5753789233039
0.0441578662318975
0.209369419854474
-1.9551034124698
-0.349524479554689
0.0474887547585671
0.370170025530305
0.478450309682661
-1.02926670878672
0.415287047919816
-0.436610076597082
-1.15105301975396
0.643391709332484
-0.708499194211778
-1.75877184150205
0.353919990971236
-0.730315621201304
-0.0657471334630937
-1.67361729377626
1.01768034211953
0.0708267560527877
-2.43627576885097
0.452148930139051
1.53335685900979
0.679893319207592
-0.576408435589803
-0.756599364614341
-1.42465827632324
1.27383841296876
-1.36804134092762
0.686094710074261
0.849595740713054
0.559169356617003
-1.29870075922444
-0.434029543609234
1.46204269166231
-0.658075568244431
1.64841845558686
0.283505702278182
-1.31446738950576
-0.170125093709636
2.18945991244135
0.052175694419613
0.820815226788173
1.44217586192918
0.777056578984292
-1.2300540882137
-1.5217229606196
-1.97332903405645
-1.1041461916291
-0.454077912395803
-0.32758755342295
-0.711704873338402
-1.00641050124489
0.0711540118141578
-0.544850023651475
0.404618528440319
-0.637627036576377
-0.434740728786586
2.39275648023093
-0.687635814494492
-0.413236632534908
0.303659424536414
1.25173523336264
0.287180386371038
0.521959682009863
0.871547063002802
0.691215824730434
1.03630688184853
0.233452918420564
-0.76485880392494
-1.47519268305343
-0.211444362759458
0.252804360222662
0.257425680475548
-0.29845234988721
1.21951314022578
0.795291754541257
-0.213370750056216
0.459435029686708
-1.71087201686655
-2.23239423920206
-0.677444202253843
-0.308806745256167
0.120854138909519
-1.5785501172955
0.177534666150869
-0.147693668033321
0.960188774670256
-0.434729202133358
0.856790410590924
-0.0673505435232034
0.385369941473384
-0.981550694481407
1.55146603374607
-1.56025790868513
0.0193775704379944
-0.473444907163394
0.414073310410384
0.162793420306005
0.319036451791268
-0.287919565935312
0.550181976155955
-0.640918334416394
1.56715912883796
-0.333020530528044
0.772771747973172
0.884696735404583
1.85141079212242
0.38552357142515
-1.02152149592723
-0.733349546587543
0.174144870738409
1.61927054246586
1.21674195204484
1.26884514271831
-0.475633146982969
-1.37689733008511
-0.264199623135935
-1.60934268814918
-0.533497930435442
0.458059789590807
2.17915119326913
-0.129703097870788
-1.31741813762761
-0.348849061896603
1.48781848796328
1.07352033864824
0.734364205226959
0.879068167894192
0.590389508502235
-0.0411758535112806
1.29619596019328
0.429143345940748
0.522275409810102
-1.16404287633943
-1.2657556115797
0.664061182422368
-0.488614599252873
0.438667780836895
-0.322031100937198
-0.957465847413751
-0.35776195426734
1.40442977845471
-3.7411441335927
-1.09399460648055
0.574525810020767
1.88419811444483
0.42989443775394
-0.0530141852512795
-2.73314212535381
0.226670198295478
0.111652680673125
0.572506077206697
-0.622114323122883
0.992735818432047
-1.05275390919771
-0.617482230549544
0.902406324601839
-0.0936877098988556
1.18418554943729
-0.954008141664614
-1.74510336269336
0.351477419079394
-0.0952733819402293
0.386083129754317
0.885039743625351
1.34267974157491
0.872253696976663
2.51064748733655
0.709913683741247
-0.0676317920993812
0.1426429152644
-0.42729937464008
2.28872614500141
-0.0626771142589615
0.446060579906386
0.558009088053475
-1.59792418925658
2.89827511973331
-0.104912221595374
-0.0131439066194482
1.16955352768881
-1.60306470051305
0.316301268625334
0.240525943709151
0.268280477803911
0.482650151412157
-1.11362754959857
-2.24926059670492
-0.740452252735659
1.13650556209808
1.94864599697612
-0.785877412888307
0.996771266613926
2.39398881834845
-0.382006682456667
-0.0334124039512015
0.979226816004912
-0.767931035399978
0.291066423795886
2.01489196538022
-0.829235565703229
-0.928708085229837
-1.11643111500356
-0.28381069621105
-0.662955689571936
2.26627069048789
1.06628867756414
0.797751340907542
-1.62182160654154
-0.28406907913123
0.0614762825483031
-1.80555199819458
-1.85533158710788
0.163780653112764
1.67723348581531
-0.490963612618325
0.990849443987871
-0.671638902519389
-1.98431154332259
-1.80963565191838
-0.889247250658223
-1.69733889541908
0.791573271931203
0.761829255290202
0.405991456849018
-0.627524449382904
0.683941926361221
-0.539767894870955
2.2724420552167
-1.82518222155346
0.210834711335001
1.28143248145672
-1.12422598857007
1.32887196686959
0.696332448700625
1.88827771155521
0.323867945806553
2.46121811383366
0.73007438166202
0.778008924672813
0.177412613426646
0.284956550947732
-0.224563500940795
1.87800821290147
-1.18193971633013
-0.102427282667262
-1.40808035362473
0.820350794866051
-0.15694828770954
-1.32352373777151
-0.953279743648795
-0.538024647101286
-0.897106083609618
-0.150964045101856
-1.0396448749137
-0.928970157683295
0.898172950143688
-0.93642607919889
0.497392391781166
1.98060354571109
0.0657908540391978
-0.463131802526264
0.530235883555368
0.50389465438034
-0.464305114651671
1.6786206482043
1.06955661838561
-0.958185920640183
-1.00360681784649
0.32319653097095
0.97868476520671
-0.384362219322177
0.600994642410601
-0.450983264073775
-0.699580561544065
-0.92631675703814
-0.54313347518456
-1.03391014263188
-1.46346208071988
1.17711581093281
0.108940511987662
2.62162371942501
-1.83866353455503
-2.22396876996515
-1.23963402534226
0.400976931474069
-1.12125937477012
-0.59294241439231
-0.843463016032589
-0.140000302139322
0.566381079150867
-1.82805920746079
1.50290821540561
-0.386949156388141
-1.20716749240558
0.361478511237977
0.487695144077025
0.0650071760163272
0.767850801463731
0.68522593496445
-0.278471100363241
-0.17627789817022
-0.370292803045358
-1.22404224740272
0.428069151028758
0.179939562110317
0.478114881584332
-1.56406356802546
-0.467674060108539
-0.200290450824271
-0.886253585313852
1.09302296415304
-0.859458405422431
-0.744975952316397
-0.345940431031087
0.180492388421416
-0.465684616376974
-0.61117399736085
-0.762772446273255
-0.943944974965968
0.932285117884737
-0.342176338413708
0.537637230001191
0.957760565684214
0.83293208201513
0.0208400137892036
0.437644490150723
2.17719301677112
1.70647681260618
-0.105715145435587
-0.233115567215873
-0.040084723735618
0.740234832539701
-0.627227321722704
-0.174566685540796
0.9619795992272
1.0069981734303
-0.0646053478075501
-0.889857052166994
-1.18400752467421
-0.706845544277138
0.23951850145114
-0.126377672928922
0.8191195678404
-0.197230854633729
-1.00232651268049
-1.29623953460908
0.723551239896894
-0.432706710169686
-1.73579472443887
-2.22414939109714
-1.64320861823656
-1.07138782560062
0.164712299806402
1.74110520345722
-0.767371054214607
1.79024388443798
-0.394558205280602
0.529795693776917
0.39724387575145
-0.341848767816477
1.78974600996697
-0.137533548643541
-0.469965446533246
1.06222123807315
1.32891619065329
2.10747149743711
0.69397773087857
1.01860577617138
1.17274425673362
-0.132952942927457
1.69102217268266
-2.0448553196668
0.283931229666479
0.386656533893874
-1.41611035545518
1.52279582914978
0.170019080653228
-0.626892481655074
0.0914248041725627
-0.168737741031595
-1.75357453409874
-1.86904918233818
-1.96326842712309
0.599676108145831
1.09955870478778
0.811726564429594
-0.129053629289548
0.168270819787984
1.3802742207118
0.665117391394154
0.381421989138074
0.486938593015808
-0.413886510842645
0.117418614666915
0.712350929104119
-0.907741553332068
-0.176280422583549
-1.42407904443899
-0.334111911603469
-1.10006589672182
-0.914059233176518
1.84380684113756
-0.958859527955769
0.276779689821876
-1.31662645084417
1.83885626688058
-1.91362409813278
1.03128079984647
-0.25086351642874
0.0216677108830433
-0.838075951381037
-1.28405005325717
0.158354554039169
0.74357525550872
2.64015518650049
-0.169219287018947
-1.95471777615766
2.3145366485592
0.922538064489082
0.0480409189910964
-0.824850332445303
0.432820641849133
1.24919117364368
2.59774307074877
-0.612735480216697
-1.0633081979103
2.3670501293171
0.0588728149365234
0.242979275005871
-0.183958673364382
0.0371522440333955
-1.65278964770098
0.19188589785153
-0.586038078144897
0.951893502585079
0.13413396115065
0.407147658790689
1.80308311024432
0.229336004462366
-0.923767013779405
-1.39822146596353
0.614911083544747
-0.714239837161472
-0.260572912747623
-0.837014052085796
-3.01798173205189
-1.11987290575179
-2.14295764356145
-0.729689676930672
0.195728418953316
-0.628495676102531
0.565645601386496
-0.326518249502454
-0.0969482715209953
0.806541327547839
1.93219723833273
-1.67207435693978
0.192133749761566
0.418980676973729
1.15324232171099
-1.20597258455197
-0.31120331100649
-0.429052437404778
1.07104594538994
-0.613595038373398
-0.191990875997994
-0.976676631077028
-0.612716303732936
-0.809890302762578
-2.63820021603566
-0.056821599504174
1.09004027075911
-0.730135340221079
0.569130466433163
-0.917041135569896
-1.41320230116646
-0.252863435959622
0.777098368857238
-1.89928449844986
-0.26528477197125
0.515181685672032
0.331736110474272
1.63743180092966
2.14416462784693
0.187835991767377
-0.537156317068345
-0.768754153826269
0.69304843542689
1.02959476749275
0.47422763908236
0.646727497479487
1.30039580800177
0.624788421801955
0.132489449943519
1.3595535523832
-2.41031979714844
1.7551565045459
0.0153407493107099
-1.08277867702062
-0.0884380401616221
-0.627207206693261
-1.69697631117282
2.16668262325424
-0.0694173926752501
-1.62092371855774
-1.4802973232211
-1.17668091559403
0.792016929779795
-1.20218594933892
0.93745457418156
-0.866581498336582
-2.07686419933112
-2.25662619256334
-1.85316637628186
-0.717879349588709
0.0280852583400544
-0.329015867600146
-0.363139698591396
-0.667838508876629
-1.71500929653293
0.0570748436939741
2.20791904906032
-1.24773057485948
-1.15760725865393
1.09599599033856
0.43863615513162
1.1086908911629
-0.273102714994384
1.80972084115178
0.297782152494083
-0.0823822925970349
-0.882286841589118
-0.86980621829534
-0.27850371928471
-0.362020016564999
-0.174578663902855
0.473160567232565
-0.440492447558794
-0.663424831382069
-0.041222662058435
-2.5417168519157
0.158024202063046
1.06969239927283
-0.101878191977822
0.192825164669046
-0.551084564477438
1.74701401696738
-0.952551881310424
-0.333338239621673
1.05190299007205
-1.05106658465921
0.362654287842104
0.364215763931947
0.0145523395911103
0.109689387881775
-0.608714741985973
-1.90006955665289
1.58036632893892
0.879454063482155
0.989243570140738
-1.87697239011485
0.809391029309272
0.0787064387233925
0.118810307595317
1.59095625191945
-0.724277531465737
0.0981861652457113
1.44834087315941
1.79325079037466
-0.44567278749722
-0.227172263553416
0.276084324358969
-0.144412631551347
0.546143376649303
-0.476758969314942
-0.242939964407635
1.08807064806355
0.38694994729078
0.148764525793211
-0.552469974999425
-0.476411349788039
1.1139875010533
0.743886086108163
-0.233820576424554
-2.79456427788097
-1.15653752835554
1.90267403358377
-0.75821706212712
0.0847625467979381
0.298176295660024
-1.03142470766615
0.20366659430279
-0.576471538340865
-0.707289096387772
-0.641567801383171
1.3635520776998
-1.57477082663299
-0.853677628007575
-0.131149348045217
-1.81888655564831
1.04063099624037
-0.961645674609924
0.220326671252473
-0.473099071275314
-1.20898229099473
-0.351670038050578
-0.630631174568572
0.237866199175625
0.820411842530281
-0.466864281835818
0.106327731229943
-1.45690033074943
-1.25764223517754
-0.311596068298665
-0.761779507628131
-0.376399641221368
-1.41454868028328
-0.0989698258509824
1.92494756160371
0.0575255809885986
0.751700423312913
0.651234022780237
2.23144567610505
-0.842709176978736
-1.04042682391469
-0.646882292991704
-1.37623025442988
0.365907583397343
0.150235168391929
-0.654583204430193
-0.735960946774704
-0.635794367113912
-0.12890725489999
0.293431116204458
-0.603798458908202
1.34280740814779
1.90668474404709
-1.71876000643185
-1.52614268728955
-0.483170356865513
-0.579254818681285
1.8733549984591
0.0625658066243723
-2.03373602533738
0.385134641042096
-0.31141432597
0.396667270416391
1.55773485381253
0.226901923297937
0.917037933208343
-1.82347987647958
0.25550044039034
0.631227226162887
1.3010715818119
0.316810972590456
0.042573292458327
-0.0663892030652267
1.86050765384206
-0.651387311806087
-0.872253419458279
0.396191461694886
1.18418866725842
-0.00576760021559285
0.195114395437079
-0.501367884659829
-1.46030734224896
0.212122119274901
-0.32945779193508
0.854100958274956
0.510024343298927
-0.525127720173539
1.34635817305329
-1.11903129707322
-1.51296309631855
-0.616446307530632
0.89790863774796
-0.768452479554501
-0.986370597669222
-1.46232648238718
0.712657501328618
-0.999933924494547
-0.48725579633107
1.10857851728506
1.31000541503498
0.204605410866038
-2.17883189694127
1.72365116702595
1.13208168863993
0.464689597909732
1.85127303501265
1.17810532346851
1.62009709137721
0.556247457396509
2.129051906687
-0.389309971461987
0.15817975999104
-0.165333104359764
-1.17280758587079
-0.748395216629575
0.369206834356254
-0.580328372709984
0.707176683840022
-0.442176865711961
-0.322502373563233
-0.55502450104965
0.885894077611131
-1.72235840856603
0.782205622497989
0.338124471520727
0.111977940527357
0.249623340965325
0.64134222836782
1.06984171398152
1.13138906682682
0.350159971572321
0.95552550006461
-0.0169111466998389
0.0683070121752959
0.519981022478754
-0.078244279279434
0.208796660105667
-0.727848927284304
-0.113537971188847
0.601052022068461
1.50107096314908
1.56123560770291
0.991589239052033
0.00536313102538866
-0.752040032012616
-0.410623134876595
-2.29909250540751
-1.14153970128653
-0.700813996802617
-0.795693151034286
-0.108198566538095
-1.80334741226091
1.99771437711675
1.10047721791768
0.0832865362032687
0.561844518480623
1.69171077774956
0.137649522581733
1.40703051798267
0.163844649134729
1.86086284162792
-0.134184043168552
-0.366857527973043
0.813003275581837
1.09798673228618
1.44914965227615
-0.075599768013349
0.643923613190463
-1.19893906473373
0.805549444708727
-1.21806906402331
-1.05609883809884
1.62460296159945
-1.44359762923306
0.0641729514142517
-0.677027659921189
0.692636361509942
1.29474573493374
-0.759228408774727
1.06723518213768
1.78487094393598
-1.08208476938367
1.66071618326646
1.0326999210224
-0.821784372475661
1.15023664265773
0.536737363075532
1.07454225110411
1.50556557602707
1.69950162733157
0.356440985980576
0.67422122524639
0.00298758865036794
-0.374268843817262
-2.1449142678394
1.82083008095934
-0.581789361135772
2.48790095725484
-0.557906543388102
1.1843859975596
-1.83530882367119
1.55393404552704
-0.67094654967016
-2.04264652616064
1.75853919681289
-0.421956752706102
-1.45613592591412
0.598536135703154
0.327259878385456
0.0409996678893592
0.713530796207652
-2.53548392056953
-0.761152201775138
-0.465250504800602
0.963575750331881
-0.0341221877443265
-0.50603353012544
0.444077307652079
-0.789468220536206
-0.555491629423669
0.00106922804563421
-1.44982514650817
0.25578332402403
0.237001555088115
-0.106062402318162
0.85219099036936
-0.54444523751986
1.56359970126673
-0.834490244651354
-0.0117580644364798
-0.727106353559596
-0.117674228935588
-1.0467245059185
0.402324807609293
-0.796048053416196
-0.386373046889626
-0.00290892629813493
1.01612387240314
1.18249582418481
0.54123017542994
-1.22290442837905
1.16512203494199
0.2010578419778
-1.44509743590722
-0.210984944695379
0.748016889739144
0.133025183988258
-1.71129564128525
-1.77108110920559
0.822830809182707
-0.609639718752117
1.08647075408075
-2.25488985041285
1.06424340654743
1.11443259322666
0.772750065837231
-0.899852838058467
0.469655848349454
-0.867289349865297
-0.185316406180465
-0.829420802964197
0.616234326544695
0.550720138115903
0.392858213425452
-0.458950050348788
-1.90759165785942
0.84762577277673
0.542521749281577
-0.368602635823123
-1.40097856594693
0.918614376563654
-0.0420757070673752
0.47605192921779
-0.521241570341659
-0.782044952328451
-1.50494796849799
0.0114435763886866
0.379763199063045
0.689068800213677
-0.559804740760639
1.30528362099083
1.02638600404054
-0.359384360522442
1.03514527446881
-0.205346660533925
0.928920631794802
-0.098417139236016
-0.209457238653672
-1.60777532639243
0.639222890136128
-1.11706734349812
0.354298242101976
0.415836941968214
1.39596739408365
0.728792712711471
0.100474285949048
-0.241255251174735
0.991999287369604
0.840493583525751
0.342548406744679
-0.387070543948845
0.527699922430285
1.58893096619143
-0.485295542674212
0.483371343654773
0.577853265471003
1.6321344967167
-0.313807890586204
0.506873915606327
-2.44727139415948
0.59039931028263
0.443175502901582
-0.766424019208857
-1.13435977946931
1.70110213393565
1.28830657747966
1.20799193715023
0.127422239116972
-0.686932850958592
1.28674902550062
1.25062067279726
0.339751449480605
-0.618178318853777
0.962956013361351
0.0520645361026704
0.287770889877698
-0.710725875212505
0.721801512746257
1.1908795869767
0.677112134400202
-1.26444044516464
0.367585342982467
1.92977459813605
-0.240127190913721
-1.23607299941087
1.3716914276147
1.02252617291961
-0.38295086513416
1.12099469460928
0.765469964997106
0.276882246776176
0.336103341945267
1.86295591566663
-1.34325779698585
1.17590504011224
-0.681762890809382
-1.49434529466517
-0.686069619053926
-1.30572317721622
1.25741591694075
-0.370076355704262
0.0693674083558013
1.20586161881669
-0.0864895647971343
0.764802091755646
0.248750750636982
-1.16206722308134
-0.286647202048975
-1.83229847406224
-0.217809066382067
-1.3584133532225
1.0496800567287
-1.19411909687996
-0.38846842114107
-1.33818751830066
-0.50546346702146
0.758249983791715
-0.350992067939048
-0.833971286057263
0.080354595779936
0.392990894717277
-1.06870097198066
-0.409525871196938
0.418421440765857
-0.96437916823918
-0.61537662636492
-0.598099462256693
1.08081690229988
1.3382090093537
-0.712164813317844
-0.677139212571
0.279280674152735
-0.780960408930533
0.669137292347711
-1.91139175820285
1.69955180159532
-0.655298837867841
-1.76019444823955
-0.146333400078282
-1.12475532594104
-0.168091431119847
-1.27907675027872
1.99686054808307
-0.979375504877342
-0.418782074013992
0.128262145084639
0.915814893374172
-0.876167817573164
-0.906543819834099
-0.386705297224238
1.51254230932996
0.728385501005397
2.49430218215324
0.113070962191545
1.55845619592832
-0.591462250357006
0.772294912016141
0.10944327881067
-1.04207827832832
0.0202133373967903
-1.31354257212137
-2.694480056307
-0.510117404567477
0.00699264618004602
-1.14978005339819
-1.32447704000459
-1.23169399234192
0.479137128423892
-0.831350270545406
-0.291201340641824
-0.230140466388797
-0.712746206691973
-0.0977306926254548
-0.229203258033922
-2.7988856566928
0.943075922275008
-1.18034154471474
2.42982473146458
1.03867391639911
1.14416613686342
0.407490309370826
0.595451648583293
0.493695293385808
-1.65884860023631
-0.21733954910096
-0.167746949564558
0.231213326097194
1.08423567511594
-1.874636904779
0.433919551497144
0.180736794639251
-0.976906119338298
-1.80097441390009
-0.713855912477868
-0.437384494400417
0.105663099501967
0.993278591805727
2.00495993702204
0.291899625722349
-1.2791549172429
1.26511021823161
1.14418505542634
-0.469052245777286
-1.17585434336935
3.10736124393979
0.691191027609069
0.903949622357356
0.949749416336985
-1.65208065429751
-0.751155787584727
-1.86083215858378
-0.731078031210035
0.392911178893485
0.730607381424419
-0.199469518044396
0.195758193347423
-1.96107552025136
0.347481586739793
1.33355686474257
0.946316540844781
-0.926614790879267
0.352668191508972
0.166222115623156
-0.554263805214637
-0.879189037585942
-1.79294695223837
-1.00285321742309
-1.12430676083083
-1.53607012562293
-1.11158246300792
-0.223660612003865
0.625171459838955
0.732286511336021
0.246425144856496
0.41498850184033
0.383067474107374
1.2570093300187
-0.628662879006848
0.0705365156930502
1.11165185986149
-0.0432857862906365
-0.294453782632178
1.5572132570382
0.180116967703724
0.873916961989005
0.879464213611439
-1.34179265929682
0.675736064442246
1.01489840652101
-1.59465953368568
0.460197780695983
0.801059715043816
-1.45642396711689
-0.201963749255406
0.798718983862476
1.02815936658093
0.488346034945895
0.709568332497489
-0.0639984346342321
1.40858911230066
0.210561023028073
1.19359224353317
-0.745143756842411
1.69438064151919
-1.39955556146231
1.60860927760688
0.192088869731214
0.404655833136952
-0.823022715691699
0.355098805457771
-0.0988098356638931
-0.940011825157365
0.558126452866278
-1.95742588161212
-0.172457810854455
1.02253315331097
0.814844833281646
-0.592354604441584
-0.296618830920832
0.0863930329986414
-2.70742401637754
0.210392480909581
0.0122125082291061
-2.04193188304028
-1.5315874293668
-0.221839248204547
-0.267315849369951
-0.886071426330687
1.98818970570308
0.250427394257295
1.34532589465694
-2.27367351796669
-0.217290066612898
0.864309865755989
-0.790989580719829
0.684058180272104
-1.48372197218385
-0.521541335166833
0.789122223970167
0.480132827069783
0.370305123153748
0.392730489125269
0.455668919642548
0.943284340732551
-0.301409840975552
0.0510095101966987
-1.49725157295646
0.522551979983492
-1.1098928853783
0.492545259657996
1.58240675051421
-1.0107099288534
-0.646110145234349
-1.48891758416911
0.47843568518551
-0.230168061768679
-1.50421450874193
-0.456826908792643
-0.500730830413612
-0.639546282272543
0.269972461391243
-2.13260156428052
-1.95325049001202
1.71251825437152
0.990706897442474
-0.899273342778581
-0.242930027153805
0.562959887784065
-0.192711002479934
-0.748855598669222
-0.567613850792529
0.860059866666596
-0.452089957676402
-0.842015218966599
-1.53954341868913
0.974262868786476
1.89345996065791
-0.148344253025193
-1.32045449824521
-0.732435071077705
-0.362802135257581
1.17285495750617
-1.27684277402262
-0.631851441896919
0.302483069015501
-0.626849205989665
0.151592464213708
0.403596238886267
-0.691067627579413
0.546883256887737
1.18265315009693
0.972283600845513
-2.11865974796734
1.67205761676967
-1.63147963196768
0.153151014142764
-0.015100281057216
0.415026534241298
-1.90319023449675
-1.65584038307906
-0.395702907375587
0.0531043308035721
-0.106128653101144
-1.72926206692698
0.307561576383535
-0.954849534766196
-2.01803496158706
0.0444859958892172
0.683874392614119
-0.410926589386455
0.915790701096914
0.401761986441172
-0.928467920027049
-0.26197931981032
-0.0620064890519559
1.68820382647157
0.317447965896242
0.865401653415574
0.385348675541156
-0.0243537480832504
0.469523775742378
-0.464112933564366
-0.308014670996712
0.277589435936841
0.260202754610437
-0.85345251780722
-0.166436041114938
-0.280149931869115
-0.143878822761931
-0.218927246441681
0.886282027848243
-0.0801803014093687
-0.572959479831442
-1.39898479165984
0.56820187035071
-1.03533032627652
0.672756813481886
-0.434978318595842
1.93340538631423
-0.288960385272428
-0.551796106010797
-1.00915892630422
0.501265859645214
-1.06317006790896
0.818952985700906
0.796543665730674
1.86818972840051
0.742029419103449
-0.194288195620845
1.13449467685538
0.675021299970737
0.3346540382623
0.189210189584613
2.18362035273803
-2.76315655610731
1.46080919551248
-0.168353607272041
-1.06383731817521
-1.24342138546482
-1.09698866257661
-0.436135245966701
0.23637214928814
-0.839332352221431
-1.33167128118891
0.595123247651346
-1.53639181609603
-0.557244233393909
-1.84779183284535
-1.17515786740443
0.228496057876381
-0.58704392438013
1.14809891913414
1.78709609859348
0.285970483686721
1.43936112383343
-1.29684956538952
-0.930203487487545
-0.218858170397629
1.29243650472309
-2.06551085597186
-1.5936899316977
2.22975242040141
-1.28348780160344
-1.7329559464977
-1.18368676166188
2.22365065710643
-0.492559203846873
-1.01944507485753
-1.93258853419373
1.77840152959261
0.9237263937622
-1.29652063752757
-0.730768303092941
0.830220453735671
0.943660157005292
1.57900721348567
-0.378107459640438
-0.733253555918672
-0.288324857842881
0.90511211736097
0.427261513346329
-1.08567881724547
-2.02730053865228
-0.169452826974688
-0.968523254841019
1.19424085956554
-1.02672640893039
0.115569214625449
-1.18907116565627
0.143800016864273
0.305421371224971
-0.283052833904993
-0.0957464420566475
0.619946627577095
0.994660850960452
1.61473195019716
0.054486325634135
-0.40151782441078
-3.10194108191858
-0.949596290150665
-1.2095665475562
-0.12452123930636
-1.68523961798194
0.365883828194047
-1.29604076992763
-1.1412074479057
-0.335259091891191
-0.517576738551243
-1.41413997785985
0.376718648247224
-0.853493327075595
-0.776774096283721
0.513244716488932
-3.01750340185186
-0.0669189766781393
-0.341042011534852
0.37118691933833
-0.112005214131671
1.10811820290646
0.446744556490525
1.29087297330126
-0.312189162296925
0.0205070181700159
0.254190921540218
-0.0122707588084277
0.346565040436207
1.23536444664032
-0.0184779742227435
1.16872766042063
-0.179745832579705
-1.30494993579863
1.88562801343386
0.461805491412958
0.459124961236896
-0.0515814716566617
-0.102367227932085
-0.542980726360513
-0.844068165535217
-1.12508376776111
-1.70377596663174
-1.24024032527672
-0.85165766162074
-2.01958383240693
-2.00260422568739
0.411615398535688
-0.213543383826422
0.57378984366503
0.0837237066192902
-0.543158368118017
2.06318630570489
-0.498716256050834
-0.617178407208159
0.753306782711871
0.486208014887564
1.87170624864685
1.24752080616517
1.62401507023108
0.483399477067408
1.13783183585442
0.53979738471625
-0.678258213281482
-2.31739021225798
-0.499703276328306
-0.707699455172486
1.44583789659939
0.0233549599825587
-0.523847022088264
0.19717699034474
-1.11850202561038
0.710884165218133
-2.05451921530523
-1.57268146595496
-0.707519290894022
1.28431227176709
-1.13454326832209
-0.775938469386609
0.735166991825419
0.909333612911911
-1.95008519717057
1.46824007340488
-0.0955629501393438
-0.259440044806116
0.210888210100444
0.160818949735103
0.259365916470256
1.12663687908543
1.4328700753268
2.38749585683025
-0.229537782144273
0.727839542471031
2.90662186021947
1.0927070797054
0.0463453318366719
-2.34730696729106
-0.342447445532201
3.26760768192776
-0.0952228625286254
1.60691751864368
0.403532796891548
-1.42543382354684
0.181593891859741
1.03113050020014
-0.157181894380032
0.601216520395542
0.538166393162328
-0.830994346098976
0.653247299930366
-0.308176276758715
0.0964968981863789
-0.651682929183263
-1.47761393553603
1.6548149395748
1.77931417735825
1.64911402229361
0.442485082426612
2.51679154194572
-0.178473887507559
1.72470333119738
2.20088313765153
1.350725610198
0.0613749108534115
0.0192077537777389
0.762629556908898
-1.7313615194452
-0.487126240406278
0.291808509989616
-2.4249972663366
0.035794938812801
-2.97181831400403
-1.32561262499815
-0.443815666203175
-0.772529366839959
-0.328313597082225
-0.316138584484836
0.555804417159383
-2.48233373511311
0.29600328714235
1.40471167255785
-0.793298662589213
-1.786910698201
-3.9343079536424
0.234956916445318
-1.16988006756753
-0.405185740091258
1.55019347123141
0.777219980994687
-1.23337833412745
0.724528391983451
-0.2173389481822
-0.944204554378481
-0.372850227224784
0.70488111099566
1.6826522726628
-1.06651125119554
-0.483710508421185
-0.0108816347372435
-1.48933660286697
0.509778355297232
1.8223987036781
0.776646634534078
1.69458280322288
-0.0654234285202486
-0.304600690018072
0.102382672895455
-0.288495053126074
-1.05656671685525
-1.58653440312348
-0.122542904005853
-0.0541902508875157
-0.788211479489131
-0.705822984817749
0.179576322737292
0.903852089851719
-0.983696864665594
-0.0865866389382499
-1.17184971139781
1.13448028509935
0.778183651589192
0.675785198498679
0.417893717434783
0.746174208003968
0.24518009007979
1.42985782178413
0.881961252091316
0.342537288194916
0.301518699205473
-0.053617734192145
0.2265457213575
0.260843346445977
-1.04690279771344
-0.0949463073537645
0.7014257632986
-0.0952803990249584
1.91755333154417
-1.89404189989546
-0.145450936918518
-0.782358388318735
-1.62750326844377
-0.470155224840619
-1.18855672337623
-2.58289227457092
-1.61271051667946
-1.46321049004193
-1.57278610962907
0.565184829635858
-1.54255431170301
1.43045852623239
-1.57914950544171
-1.1144582489142
0.197658275479826
-0.857776187097864
-0.285249562016098
-0.559810770739979
-0.204300235295457
0.812825559564607
-2.21228862869173
0.605054812640431
0.295398480130602
2.63652546113992
-0.475631909240742
3.52371747944554
0.756423382570639
0.0728383888487212
2.1970485527858
1.68960144671645
1.08667443096469
-0.196037210240509
0.112547580874747
-0.60899284008284
-1.45281040375343
-1.66375665256907
0.483676472288857
-1.22303122223071
-0.262115391148849
1.09409328797608
-0.733804203216943
-0.818514378256712
0.477234148522666
0.123816625391771
-0.346458165279142
0.961029987828084
1.43519809861752
0.344618850065558
-0.400792283489979
0.463582829582664
1.31326482498761
-1.04160630952307
-0.303689977110648
-0.659125641661342
-0.0751677219264029
0.59886595013653
-0.00987341105739094
1.00950870743186
0.14228271856493
-0.761360260085517
0.00926529415582319
0.761235168025041
-0.316838045494969
1.61262921188258
0.0635569960999537
-0.246788687483433
1.56259801800848
0.575474659475118
2.43104605632056
-0.977901846964029
-1.17341659236096
0.444878124281792
-0.0566832928553858
-0.0886689424419291
0.508882310438082
0.393498294297306
-0.0676697799261582
-1.71416773773908
0.696410232151987
0.344153825674374
1.1701002335607
0.43120489987511
1.32758489822287
3.11254390021124
1.31441035759714
-0.311139744520866
0.70987597650405
-1.08852496241095
1.28997899045409
0.559975653804551
0.140769566849895
1.66339753038093
-1.20052860065478
-0.659459261198747
-0.367288548454165
0.170219555892217
1.85251047061142
-1.11946407794411
1.63673148041233
1.88197471003464
-0.227289788738377
2.23115936159127
-0.287702218149285
1.24790681210946
1.42307901700404
-1.00364615289399
0.0767988905554309
0.178883286205488
0.756503763839727
-2.28992732708141
0.507282335273446
1.18716596211735
1.05168199053628
0.391092039356967
1.05782246870132
-0.765304303000613
0.561519767052613
-1.16518448486115
0.32269951982545
0.0791490377827193
-0.934140104952514
0.702707835083896
-0.134993794566802
-0.515310033035204
1.52120151496974
-0.40653549846508
-0.195344452089491
0.112005338598511
1.83537292277685
-0.20642194895485
2.26004817052347
-1.86982941069048
1.47085051163573
0.0848641810172556
-2.327267045932
-0.314503688270571
-0.46807155271559
0.428816406603813
1.9143026315369
-1.98370664574145
0.797894873567457
-0.195882803365194
-0.80059215164299
-0.755295639292806
-0.574401506301669
-0.921421765754762
-0.489146388818519
-2.12125544017589
0.318475026264729
-0.408674111144108
1.44256748357887
0.00200414582658685
-1.21925304412868
0.516685334026543
-0.50643745334174
0.295846440907071
0.556916668155765
-0.659078972254804
-0.21102592327306
0.671802107427491
-1.23820080708777
0.3296827924109
0.117114054194516
0.811291864835018
1.74390598440159
-0.500649968641248
-0.961674608970354
-1.26361276877376
-1.75542819137128
0.541799220824479
0.42886756538781
0.860541223105462
1.31692019927963
-0.574773308204383
-1.24936259215871
-0.901730935784259
1.78106827196808
-0.230350857668139
-0.571187255615407
0.0444586617240458
-0.194621248606461
0.192548781965323
0.352363785898826
0.0967098784495763
2.40922385401048
0.478963132925732
0.264017074428157
0.12458095229575
1.09013129538042
1.31506958357416
0.394026641597987
0.161813561510158
0.827992744225557
-0.289412701061424
-0.905451355498008
0.66992859235528
0.865495252802791
1.09210717491038
-0.304869759318341
-1.71881985395978
0.146497504566592
-0.707085192165876
1.65390418537772
0.5231375040313
-0.215320592853596
-0.95793216950348
-1.19218288867698
0.72623473977082
0.592703049116564
0.162024455988221
1.05591201427898
-1.31337824490535
-0.135906983050631
-1.07444947319249
-0.876499360424846
-2.0100814946514
-0.474723807198728
-1.13924775998313
-0.0841332916064588
-0.564266775147432
-1.04371195861626
-0.133273302401108
-1.62955152607091
-0.957967564201497
-0.267399387773641
-0.579373648914884
0.882191319938861
0.98545652144577
-3.45862078357985
-0.652121025089515
0.230538666170659
-1.05038756136825
0.899784400172438
0.735327497239104
1.89754991524055
0.508523822430529
-1.69674793093368
1.71174531113857
-0.434052627767684
-0.241981704646937
0.143895259182072
-0.381179798632559
0.131822245445956
1.26457720765637
0.0088052020761089
0.706472434544145
0.461004184906091
0.643387458113732
0.356704288842459
0.189449715378369
-0.645858963631963
-0.263082918395118
-1.02291865474233
0.114370609482452
1.3769856275238
-1.28910113939151
0.380704451380813
-0.207198951838844
0.398087642958388
-0.456573416119579
1.61869570367489
-0.225845767173874
-0.799833343103428
0.487973154817712
-0.810634511285084
-1.43682334514746
1.75122480951236
0.350966169386419
-0.0710856633540514
1.13151723678169
-1.74796116040983
-0.450656031910631
0.437991886856413
0.548141796491731
-0.56001449268966
-0.911549769494667
0.144922837687424
-0.655280982099623
0.261188411555937
-0.848677668043265
-0.0530873837276155
1.3981145987837
0.614387746103937
-0.406083328184976
0.556181345083778
0.87493968886182
0.292474961336814
-1.39951506297262
-0.422214924600941
-1.28617163540329
0.906462277040232
1.11566347482247
-1.54447137916129
1.1560813827021
1.53479595305166
-1.1145816479096
0.154853922966742
-1.53843297020507
0.787580276078494
1.49201178643415
0.515373055117522
-0.553151644465067
-0.228312626426409
1.55807118493641
-1.91124625079883
1.17226705432635
0.673973629424887
1.23483794282624
1.11970223282369
0.152659450541291
0.20503188143298
0.455452685152629
-0.386670027319406
0.333982196938481
-0.685543222262783
0.0963165997232953
0.305776310878734
-0.783793465659773
1.53779746728312
1.00326611168694
0.0481494445872435
1.78181280959883
-1.04650918510151
1.60384053466123
-0.610513880990462
0.504274137436613
-1.97912592697774
-1.70489360360216
0.68873758675377
0.54385943133419
-0.394318372889643
-0.179829967832848
1.78550232341286
0.197985383529048
0.00309563052484928
-0.236887607954466
0.267077059336245
0.472959549227482
0.474198601356318
-0.524069615527404
0.327598254247226
0.878987433893221
0.576052345552066
2.20806314500975
-0.467421109406332
-0.640998651275323
0.811407831349755
-0.0136227419851009
0.740159278502909
0.518049933380284
1.22957702403392
-0.328531254655789
-0.286033336539375
-0.135509421741919
1.46179719454821
2.27621806158357
0.19135836081407
1.62548300578362
1.37380313815565
-1.6111556649674
-1.33590346870026
-0.198105043910174
0.165536205935562
0.501726470526561
-0.370285176539269
-0.428556158375478
-0.0171837334847056
-0.901328776307406
-0.139892806539464
2.11864701449883
0.905092457573302
1.13378007829187
0.674204398684233
-0.994433819777806
-0.918172242168526
1.01628223709605
-0.824648860518439
-2.09415310090181
0.719207327724333
-0.508622485951006
-0.103076807621297
-0.507850388444214
1.00105697907974
-1.50671790052598
0.250509172516164
0.0948469552127161
-0.438245483411522
-0.428398757764412
-1.70523088588116
0.633858950473103
-0.675676044650432
1.19066178655657
-0.736743580824405
0.42361943854126
0.587682844359187
0.396662393706499
0.547401539992367
0.860534603297118
-0.305158738191395
-0.522897302415857
-0.89835185247647
-0.667569155970272
1.24413575575108
-0.562607988011339
-0.00115869890816551
-0.797323760939194
0.194885542008902
0.760068853432068
-0.0945741169082128
-0.76313258783978
0.524352938892331
-0.025883699185733
0.381075157488711
1.24376999402187
0.47951064143338
-0.0278851504657495
-0.0550364010548538
-0.337256715868657
1.14879256537176
0.80070441710399
0.434409305533434
0.685596607505369
0.0194919651872042
-0.671448117447299
0.450736972509947
0.798447511248315
0.117167597470096
0.494649984061876
1.09074635020835
0.395177916489934
-0.204148974774489
1.02860688025762
0.154132266027053
-2.23560313164239
-0.837927499805168
-0.861841279305698
-0.104812339912579
-1.61273704244856
-0.547301649696135
-1.61818461841647
1.43015115482537
0.24320319279898
0.0171606334258151
0.778473617708353
0.971640848888493
-1.87788863539319
0.0339262739203993
-0.20220144352835
-1.23472180720836
2.05121335234895
-0.796726373459706
-0.626837487481066
-1.11754116579443
0.54953055183371
1.54529413438503
-0.466417724242235
2.67040429683397
1.33704599592013
0.605927620925626
-0.633930750503054
0.253612884887484
0.426781540099824
-0.0351580864659301
-0.979065924543294
-1.51848411958798
0.450895910530516
0.281736695098675
0.398218899934105
0.27730201188265
-1.67028513919122
0.0854330213440457
-1.16189325741324
-1.95323011500946
-1.77637265750183
0.345451796209125
-0.506423117677499
-0.662719018198317
0.364518799189402
-0.925028970731569
2.79067163246026
1.02234503462675
0.730571813088642
0.359491226172318
0.255940240809053
1.93509173946042
-1.49283534611376
-1.13778774718005
1.06873446715423
0.601680449595995
1.4302528380186
-0.863658741859091
0.644312040630481
1.23316284483026
0.322656468433471
-1.38323981209772
-0.267295905696358
1.03879692352837
-0.697837289644968
-0.336929785263278
1.65051222052057
-1.44454000375292
1.84988398208678
-1.69012407796143
-1.17369185737626
-0.62593313633603
0.871393278079569
-0.468628517560923
-0.310601056035293
-0.0577268210703868
0.0239494088387515
-0.124935025755881
-0.37407630672791
-2.2197719331867
0.802385433395503
-0.926336510632746
-0.467754840085902
-0.0101085648882591
-1.71998260385862
-0.521689853940572
0.809525226689742
1.44722356707176
0.247765697545262
-1.63021871164616
1.30485104908416
0.607271527413368
0.068267922310125
0.0670254351177518
-0.412814251236296
0.277791649460173
0.363742528892413
-2.21401757276421
-0.70409851194283
-0.835428094886838
-1.0491250008878
-1.12327748970004
0.68967667159945
1.11527637526805
0.26647140041158
-0.813340766378471
-1.28673670754299
-0.376981672231338
0.478188764476388
0.0877982295910968
0.378458430792887
0.30604492205923
1.13974591668855
-1.55031671346635
0.183873195384785
0.654841117216745
1.07778129970293
0.141838104943286
-0.22144487669138
1.5695835166193
-0.079974847403773
0.0286424417616499
1.15027818838672
2.59981665206755
-0.909461049065444
0.345912800348182
-2.39810924754979
0.147387724462782
1.28005767193284
0.401466693974338
1.24409904416071
-0.704316124046694
-0.940580090082847
-0.527370715637084
0.773409648683403
0.460144708588739
-0.281966557614071
0.063796367337379
1.09077055656478
0.645605414745404
-1.2570596815684
-1.00070125958354
-0.273715091912833
-1.18250992258679
-0.546171983733343
0.26729981787955
0.256529815500943
1.46301061717284
1.13614210638018
-1.09941950800867
-0.984797818441224
0.940063974759467
1.93820320831417
-0.282387112689954
-1.79084426543561
-0.0912854870457999
-0.759051508610403
0.814463853309726
1.19311796451119
1.79034240176336
0.381218654026297
0.132374807643604
0.450818203837503
0.288482359406707
-0.54053872438399
1.23055814461199
0.435902940596197
-0.431601357018297
2.2417694454761
-0.601971013039882
-0.195405257499966
-0.985062188508728
0.414352107134151
-0.0678427751961656
-0.259760253837688
-0.420134772091239
1.81355966184252
0.279823644826634
0.605551409057563
1.69373911859169
-0.164697293231383
1.36070509394174
-0.854475955806906
-2.38491717803216
0.139618430659726
0.963274448241186
1.11704219650799
0.212346241138221
1.17273113320204
-0.0857713986594051
-0.466467946017155
-1.16184396673873
-0.499597792181275
-2.27635247929197
-0.131052735938431
1.21591361102493
-0.612347069377725
-1.23454677944682
-1.29172333863146
-1.45049540918952
0.497398748372961
0.305271610773412
-0.136538633012744
-1.30808696829162
-1.4693154205576
-1.14628247807835
-0.85773368929742
-0.971773664550429
-0.126181814105996
0.815118313390248
2.53596869512809
0.465463050928895
-0.972363112701336
-0.787563924546124
0.707762730305799
-0.526668734454843
-0.231838666721453
-1.19226488324798
0.98747922367306
-0.108380365076306
0.268776154607808
-0.269490901104233
0.270611242706696
-0.6038934479523
-0.707682088349642
-0.163257401491198
0.302721927989111
0.535444570310856
0.097612110613561
0.0213504699991395
2.13141009968586
0.367633379615185
-0.572061440745236
0.12478622360211
-1.23240669719103
-2.20373919426994
-0.762727496874153
-0.471777945069156
-1.39957450394828
-0.388441729067831
0.593201231986983
0.0690483358725051
1.22682028541458
1.97957589689798
0.491489863613919
0.511674580885055
0.473913691406003
1.30413851232213
-0.778579022807165
-0.477335973895935
-1.1109142446597
-0.695065561085437
-1.57792252072254
1.76729380573409
0.049722133312939
0.366503111374431
1.26050522569031
0.782175925739122
-0.127413515038334
-0.161279037466382
-0.0978031252910462
1.12569351341276
-0.778597970994626
1.24241520636632
0.311329931304343
-0.546719546071037
-1.02017637113213
-0.0546027542602985
-0.00277973124700871
-0.582575327189525
-1.11944071355756
-0.315259321147226
0.019233896798705
1.05250545242257
-1.56707792124977
1.87475723761722
1.11591963274901
1.1440036363985
-0.931843260755393
0.423075786697206
-1.33455129583016
0.00344136844603507
0.407069650737583
0.424242968605799
0.513059452152348
-0.988724608614835
0.948585466738976
-0.948605259320767
0.929361790679325
0.453060511500077
1.36603320192459
-1.79374401115003
-0.217318003310016
-0.648934970535111
0.615692265259423
-0.327251547765879
-1.41784239152418
2.01883816453935
1.82375158677774
0.260826241401217
-0.472145517403345
-0.644858948352833
-0.578997858494796
-1.15725006542952
-0.581123681619065
0.769566574274166
1.27295997872177
-1.41388534081806
0.593531997229283
0.497379582088798
-0.909493667440557
-0.17108713862138
-0.195177049564474
-1.34532847566095
1.02094382049397
0.742923983153873
0.330823864867435
-1.2374687209409
0.536617735025289
0.645362015788533
0.555607079509132
0.601314644072397
-0.0381848013238379
-1.27850705713151
-1.68600612947594
-1.61735726651365
1.10307665747477
0.777934432754645
0.73008988495165
0.036847907529577
-1.651065772153
-0.9391522682538
0.387941101896368
1.68278937515394
1.63638204219692
1.18842640743755
-0.0598527892485624
0.921922692810967
0.278640114985073
-1.53608113036855
0.550340896366656
0.734610003679114
0.370828646571268
-1.16729095883772
-1.49796426118155
-0.346684272830591
-0.376542333973915
1.32796472022761
-0.86999062712366
0.669540030383622
-0.150414406072455
-0.495566282941676
0.478613656496624
0.267457935828864
1.21939936116598
-0.218377612473507
1.8823439401357
-1.60933964701078
1.44738546500022
-0.424353456018249
-0.334614139254449
-1.1797442168983
-0.505750046026523
-0.0712445118672364
-0.693389118302675
-0.233555604984923
-0.808023712926204
0.396893086830087
0.211563690951127
0.517831086733895
0.909640578942779
0.779241952107004
-1.22646856461722
-0.478443727829774
-1.98061606644423
0.925576516976422
-0.138212357791956
0.884002459304865
0.76828263221955
0.251170125493488
2.48354678588421
0.104886965895333
-0.0422514505047183
0.976413444485964
0.25205481362795
0.313885784051721
0.593640599614608
-1.12478828766796
0.192939761677893
-0.360460336899126
-0.0712112773995039
0.535687880670412
-0.727530432783755
2.10606735355416
-0.875301520751367
-0.948645644677384
0.263227793973879
0.556754273651547
-0.265940028059051
-0.441966618755021
-0.756811160788224
1.20023404744128
-1.35276489545633
-0.324888860855261
1.67492438294801
0.00028598645634012
1.03574159040166
1.58296818969412
-0.773930021545279
0.0734879724288936
-0.357870001917184
1.78615853584149
0.674058482264418
-1.00632219763562
0.62097733638317
-0.755160351108433
-0.609524653955437
-0.122210019215137
-0.714529806093388
2.66355457233412
0.256270040846521
1.10207965713195
0.590987789317725
0.135476148901607
-0.345689210116583
0.362135620459658
-0.498015599693455
0.201845276061926
1.06334373163829
-0.14048341678421
0.0220390538844573
0.0522458758566028
0.0175047259205355
-2.97038011550158
1.72408626980625
-2.99512379197228
-2.09160038835698
-0.453122946133681
-0.072954360074213
-2.67170348024056
-0.433951857584026
0.172781570730752
1.27653584783518
1.63330759977939
-0.262597114325016
-0.889882430427525
0.638836662220483
-0.450151422311828
-0.694443568205649
0.631833640973705
-0.627745378319025
-0.182171740594194
1.36048965604519
-0.231639118649864
-1.76189345010334
-0.107775300957936
0.251850317733404
-1.59865114873853
0.411245668073538
-0.562458232796618
-0.996423066524782
0.848580782289101
1.17810621616013
-0.214827684331538
-0.556546211390554
-0.4697443473584
-1.6513621673708
0.449720066332875
0.625833924170699
1.59223145914371
1.06053746593448
-0.560864534331136
0.835366849638392
-1.04838349527099
-2.7940328721088
0.863884898141266
1.72097570260483
-1.43609446359051
0.758636797644063
-1.12973746175143
-1.05076576613844
-0.631474879137259
-1.17340487324028
1.49416482842672
1.50637457395892
-0.315032430798334
-0.387448782795446
1.52592844302843
-0.0148736100319158
1.1366094605535
0.176584517447716
1.36850156021237
0.0568832525313432
-0.0662589022216987
0.613971275202242
1.83994918063903
-0.110787102261012
-2.22310666770884
0.151618980730639
0.247331055247509
-0.583644308914634
0.664388484987748
-1.05853922449402
0.65595008155545
-0.474341325698308
1.04181304051032
-1.70784109774091
-1.11389354683346
-0.582458464056069
0.639231665875217
1.78540893198912
0.548504759376454
0.754573358893054
1.00811270815147
-0.742846646789351
-0.915839741094452
0.332936764568207
2.16458659303542
-0.0665728687828643
-0.526102424922047
0.516716667661933
-0.659345178114763
-0.252220075908697
-0.0406975015171555
-1.83238255289864
-0.418131980841473
-2.62476023990078
3.39733706332351
0.305746029651844
-1.24170828308384
0.0489617595768602
-1.7126935383053
0.12568496935236
-0.000603224961529675
0.0664613967971008
0.140195994593861
0.0665327310407956
0.729826973075788
2.73823583692347
0.840266466544548
1.15602645369379
2.10667387948205
0.911743278863949
0.530196490701159
0.231648406506089
2.16316290763567
-1.4096128535239
0.9628291813719
-0.0844184763458252
-0.324668971798813
0.46335839030318
-1.37457537547971
-0.759844605473132
-0.56935087062341
-0.915279170863472
-1.24149889427838
-1.61879477226157
0.279298419493615
-0.151908001466176
-2.438125626782
0.640426205572663
-0.129056606868816
0.307018885807179
0.399081039028159
-1.02929051379589
0.360579629623391
0.135965629464686
0.475442462018845
-0.4536752971484
0.4001572814558
-0.146247390906937
0.78304510601584
-0.564543359909591
0.542825898568869
0.202284915688942
0.865575045603564
0.868246263034075
2.52664543514264
1.25416854914396
-0.270093809779354
1.05551972221414
1.0476951111786
-0.223754948352987
1.79241920808647
2.07719875870039
-0.749582308374554
-2.34592276739764
-1.19179202714473
-2.07100339101702
-1.25388080269277
1.22508429635128
0.302951288381075
0.892011812003893
-1.29259629325444
-1.9389163309184
-1.21649201348844
-0.674295325515286
-1.15682448316139
1.90295614067661
-0.358166378229176
-1.47297392056729
0.127837585623505
-0.17179575746354
1.11985066008547
-0.997378148965729
0.643356382649223
-2.00471887542923
0.420591482649758
-0.790374574696782
-0.611985155797703
0.0395537691412865
0.876863306583669
1.84379676777651
0.984711420105092
-1.02982695458943
0.907900869421982
0.170688786356096
-0.389586185405748
0.350078310815345
2.11712186915071
-0.00649549497643177
-1.03682462768727
-0.110109834562786
1.78350018763737
1.86823488531617
-0.0832906946521837
1.57019256372674
-0.0136553087885348
0.833378763658207
-0.516720987598522
0.400993423900299
-0.263121320075093
-0.564348243031962
-0.703836917641857
-0.697354453724761
1.02814292029973
1.32159482057111
-1.45629494183715
1.80039765628432
-1.70851017283671
37.5266217436361
-2.06964718415432
-0.447966987429136
0.946988847120651
-4.08813975727143
3.46974387863491
41.94877475015
-0.636966599487335
-3.52830993703177
-2.30728423885721
220.883177838172
5.60500777424762
-176.865329231852
-3.64645915876456
1.48487172734907
8.60331589048135
4.0255308672715
-39.653829868317
0.339735456337196
-0.0480437036181508
-28.3486070864728
4.17871521044091
-7.68915702077993
-6.13295707805184
8.4351194313359
8.31868190212296
